{"type":"LSTM","options":{"inputSize":38,"inputRange":38,"hiddenLayers":[20,20],"outputSize":38,"decayRate":0.999,"smoothEps":1e-8,"regc":0.000001,"clipval":5,"maxPredictionLength":100,"dataFormatter":{"values":["yes","do it","sure","exactly","confirm","of course","sounds good","that's correct","I don't mind","I agree","no","don't do it","definitely not","not really","thanks but no","not interested","I don't think so","I disagree","I don't want that","later","not yet","ask me later","not ","next time","I said later","some other time","do it later","not at the moment","not at this time","cancel","stop","dismiss","skip","forget that","stop it","never mind","do nothing","just forget about it","cancel that","more","more results","anything else","other results","what else","are there more","tell me more","show me more","more information","next","next page","go forward","show me next","following result","switch to the next","go to the next page","read the next results","show me the next page","show me the following results","back","previous","go back","previous page","previous results","return to the previous","return to previous page","go to the previous page","go back to previous results","read out the previous results","repeat","repeat it","come again","do it again","say it again","say the same again","please repeat that","repeat these results","could you repeat that","repeat what you've just said","second","select.number","I choose number 3","see 1 2 3 4 and 5","number 4 5 7 and 8","select the first one","show me the second one","choose 1st and 2nd one","choose numbers 1 2 3 and 5","the 1st one and the 2nd one","I select number 2 and number 5"],"indexTable":{"1":29,"2":30,"3":28,"4":31,"5":32,"7":33,"8":34,"y":0,"e":1,"s":2,"d":3,"o":4," ":5,"i":6,"t":7,"u":8,"r":9,"x":10,"a":11,"c":12,"l":13,"n":14,"f":15,"m":16,"g":17,"h":18,"'":19,"I":20,"k":21,"b":22,"w":23,"p":24,"v":25,"j":26,".":27,"stop-input":35,"start-output":36,"unrecognized":37},"characterTable":{"0":"y","1":"e","2":"s","3":"d","4":"o","5":" ","6":"i","7":"t","8":"u","9":"r","10":"x","11":"a","12":"c","13":"l","14":"n","15":"f","16":"m","17":"g","18":"h","19":"'","20":"I","21":"k","22":"b","23":"w","24":"p","25":"v","26":"j","27":".","28":"3","29":"1","30":"2","31":"4","32":"5","33":"7","34":"8","35":null,"36":null,"37":null},"characters":["y","e","s","d","o"," ","i","t","u","r","x","a","c","l","n","f","m","g","h","'","I","k","b","w","p","v","j",".","3","1","2","4","5","7","8","stop-input","start-output","unrecognized"],"specialIndexes":[35,36,37]}},"input":{"rows":39,"columns":38,"weights":{"0":-0.23623627424240112,"1":0.3281703293323517,"2":-4.444745063781738,"3":-1.3352241516113281,"4":-1.3233880996704102,"5":-0.06272231042385101,"6":-1.9666194915771484,"7":-1.0149556398391724,"8":-4.4418134689331055,"9":-0.5849095582962036,"10":-0.8832929730415344,"11":-1.4591225385665894,"12":0.7971585392951965,"13":1.1235204935073853,"14":-1.2250198125839233,"15":1.1809654235839844,"16":-2.2451329231262207,"17":-0.7968869209289551,"18":0.22108323872089386,"19":-4.921085834503174,"20":1.9166070222854614,"21":3.4644482135772705,"22":0.42880892753601074,"23":-2.4716989994049072,"24":2.4321179389953613,"25":0.24910292029380798,"26":0.37506482005119324,"27":0.18391942977905273,"28":0.21543963253498077,"29":1.690297245979309,"30":-1.8187849521636963,"31":0.8659495115280151,"32":0.34766191244125366,"33":0.8333137035369873,"34":1.2574694156646729,"35":2.0077707767486572,"36":1.114804983139038,"37":1.7518417835235596,"38":-2.714179754257202,"39":-0.4848140478134155,"40":2.0261027812957764,"41":0.21541671454906464,"42":-10.91171646118164,"43":2.5094523429870605,"44":-2.469292640686035,"45":17.43597984313965,"46":5.451801776885986,"47":-14.95355224609375,"48":0.3902229070663452,"49":12.947745323181152,"50":7.380803108215332,"51":-10.235536575317383,"52":5.732778072357178,"53":6.9165472984313965,"54":-3.3639163970947266,"55":-8.824737548828125,"56":-8.115703582763672,"57":-1.5668256282806396,"58":-8.542737007141113,"59":3.5963680744171143,"60":0.5271468758583069,"61":0.3778359293937683,"62":10.129571914672852,"63":15.341451644897461,"64":-0.2400451898574829,"65":-20.71971321105957,"66":11.51029109954834,"67":-2.845247745513916,"68":4.716752529144287,"69":-4.40310001373291,"70":-16.31842041015625,"71":8.12610149383545,"72":-6.020408630371094,"73":15.08340835571289,"74":-1.6038378477096558,"75":-4.788517951965332,"76":1.302132248878479,"77":2.348695993423462,"78":1.1758509874343872,"79":0.9743360280990601,"80":-1.9344502687454224,"81":-0.10792375355958939,"82":-0.19558091461658478,"83":0.6166462898254395,"84":3.2062366008758545,"85":-0.5686100125312805,"86":-0.6083893179893494,"87":-0.6372841000556946,"88":0.12352346628904343,"89":-0.3109547197818756,"90":1.577492356300354,"91":0.0008730117697268724,"92":-0.5805227756500244,"93":-1.1834907531738281,"94":1.3846216201782227,"95":1.7025330066680908,"96":-0.9774172902107239,"97":-3.12296724319458,"98":1.6071527004241943,"99":1.3383872509002686,"100":0.07120052725076675,"101":0.05800173804163933,"102":1.4567471742630005,"103":0.35114917159080505,"104":0.6939221620559692,"105":-1.8661426305770874,"106":0.19606004655361176,"107":0.8434363603591919,"108":-1.0845891237258911,"109":0.6137402653694153,"110":2.5798399448394775,"111":0.8707622289657593,"112":-0.144834503531456,"113":4.265626430511475,"114":4.152342796325684,"115":-3.0048024654388428,"116":-1.5166382789611816,"117":0.9999176859855652,"118":2.3050756454467773,"119":0.9493181705474854,"120":-0.5516639351844788,"121":1.6307471990585327,"122":3.4452731609344482,"123":0.12270694971084595,"124":0.026528451591730118,"125":0.1814252883195877,"126":2.7612266540527344,"127":-1.9693232774734497,"128":5.208009719848633,"129":6.68098258972168,"130":-0.8090599179267883,"131":-1.8429734706878662,"132":1.2438405752182007,"133":4.657806396484375,"134":0.3480812907218933,"135":1.128570556640625,"136":3.5264892578125,"137":-0.18830464780330658,"138":-0.4568883180618286,"139":-3.8255667686462402,"140":-2.6794745922088623,"141":-0.38139158487319946,"142":-1.7070677280426025,"143":-0.08645667880773544,"144":1.588250756263733,"145":3.986546754837036,"146":-0.6027768850326538,"147":-1.3588659763336182,"148":-7.674098014831543,"149":0.36612963676452637,"150":0.13575313985347748,"151":-2.486107349395752,"152":-3.6824839115142822,"153":-2.9953901767730713,"154":1.1975194215774536,"155":-8.647125244140625,"156":0.39432811737060547,"157":-3.320608139038086,"158":1.0807048082351685,"159":6.92643928527832,"160":-3.0342161655426025,"161":5.2905049324035645,"162":6.200037479400635,"163":-3.3024797439575195,"164":-0.8894222974777222,"165":2.221662759780884,"166":0.24119353294372559,"167":5.229092597961426,"168":-1.3870128393173218,"169":-11.46597671508789,"170":3.1215384006500244,"171":10.668418884277344,"172":-0.6758092045783997,"173":4.589974403381348,"174":2.5714285373687744,"175":-0.5432755351066589,"176":2.429917097091675,"177":-2.035353899002075,"178":10.070676803588867,"179":0.7391964197158813,"180":-1.841931939125061,"181":-0.44616806507110596,"182":5.554406642913818,"183":3.489583969116211,"184":-5.139942169189453,"185":-8.84111499786377,"186":2.3304638862609863,"187":-4.856574535369873,"188":2.0041587352752686,"189":5.1018548011779785,"190":-0.16870048642158508,"191":0.18058733642101288,"192":2.815821647644043,"193":-0.5632955431938171,"194":0.9627410769462585,"195":-0.27735766768455505,"196":-1.9855676889419556,"197":2.0242598056793213,"198":4.552756309509277,"199":-0.1158200353384018,"200":-1.755371332168579,"201":-0.035989951342344284,"202":-0.03250361979007721,"203":-4.793978214263916,"204":1.983154296875,"205":-0.7601220011711121,"206":-1.1730093955993652,"207":1.9535737037658691,"208":0.9911478161811829,"209":4.201447486877441,"210":-1.9081957340240479,"211":-1.6152732372283936,"212":2.0395421981811523,"213":0.5913934111595154,"214":-1.2100679874420166,"215":1.2476428747177124,"216":-1.266959309577942,"217":-1.9670090675354004,"218":-1.7431834936141968,"219":-0.9874678254127502,"220":1.7326219081878662,"221":-1.8038907051086426,"222":-1.1305359601974487,"223":-0.6600683331489563,"224":-0.6242366433143616,"225":-2.1052181720733643,"226":-2.1483092308044434,"227":-0.762296736240387,"228":1.4444059133529663,"229":0.7920525074005127,"230":-1.3168315887451172,"231":-1.975653052330017,"232":0.38943853974342346,"233":3.262333393096924,"234":1.9643428325653076,"235":1.1841371059417725,"236":-3.296649217605591,"237":-0.3552471399307251,"238":-2.447636127471924,"239":-2.967564105987549,"240":3.3875842094421387,"241":1.7987284660339355,"242":2.823232412338257,"243":-0.2634986937046051,"244":-1.6396030187606812,"245":-6.844883918762207,"246":0.819309651851654,"247":2.756425380706787,"248":0.08414863795042038,"249":0.7266866564750671,"250":-2.9485373497009277,"251":-1.604020357131958,"252":-2.0366780757904053,"253":-2.015960693359375,"254":2.200469493865967,"255":-0.07208933681249619,"256":-2.196129322052002,"257":2.74696946144104,"258":-1.4220491647720337,"259":-0.8638344407081604,"260":0.3820272982120514,"261":2.019704580307007,"262":-1.532278299331665,"263":1.7493233680725098,"264":3.0395240783691406,"265":0.41694438457489014,"266":-0.21404387056827545,"267":10.229299545288086,"268":-2.849689483642578,"269":4.838350772857666,"270":-0.2802472710609436,"271":-3.793748378753662,"272":1.9120397567749023,"273":-4.742172718048096,"274":-6.530817985534668,"275":5.263558387756348,"276":-7.126469135284424,"277":-1.4562729597091675,"278":0.534332811832428,"279":0.6256616115570068,"280":-1.7459598779678345,"281":-7.894821643829346,"282":0.8987323641777039,"283":12.852151870727539,"284":2.3683042526245117,"285":-3.145024538040161,"286":-2.476830244064331,"287":1.9432402849197388,"288":-0.1370120346546173,"289":1.0635652542114258,"290":0.9275023937225342,"291":-4.4073333740234375,"292":-5.69473123550415,"293":1.2990752458572388,"294":-0.9181960821151733,"295":2.9083597660064697,"296":-1.3126318454742432,"297":3.6266729831695557,"298":3.4520833492279053,"299":5.893482208251953,"300":1.6216726303100586,"301":-7.049678802490234,"302":2.808042287826538,"303":3.292464256286621,"304":1.7743247747421265,"305":-0.1418558657169342,"306":0.11250455677509308,"307":-1.6103665828704834,"308":-0.7544596195220947,"309":0.11502686887979507,"310":0.6962088346481323,"311":2.841155767440796,"312":-1.507317066192627,"313":-0.21746845543384552,"314":7.700769901275635,"315":2.111873149871826,"316":0.39888274669647217,"317":-2.410989999771118,"318":1.7145874500274658,"319":2.6112914085388184,"320":0.7991182804107666,"321":-2.330335855484009,"322":-1.5330263376235962,"323":0.3450986444950104,"324":-0.06364050507545471,"325":2.0178327560424805,"326":6.4002366065979,"327":-1.873224139213562,"328":0.778874397277832,"329":1.5049552917480469,"330":-0.8280863165855408,"331":-2.0137624740600586,"332":-0.7304093241691589,"333":-0.19573980569839478,"334":5.3830342292785645,"335":0.6736893057823181,"336":-2.117705821990967,"337":0.4633876383304596,"338":-2.629049301147461,"339":-3.2707064151763916,"340":-2.9403622150421143,"341":-2.606318712234497,"342":-5.172464847564697,"343":-1.4090826511383057,"344":-3.908463954925537,"345":-6.381199359893799,"346":-1.3680779933929443,"347":-3.5924248695373535,"348":-6.7032060623168945,"349":-4.271526336669922,"350":6.114609241485596,"351":-2.984626531600952,"352":5.784858703613281,"353":6.3271660804748535,"354":-4.344543933868408,"355":5.03270959854126,"356":-8.066279411315918,"357":2.6886775493621826,"358":-1.0456291437149048,"359":-1.6653894186019897,"360":-1.7416878938674927,"361":-0.39133521914482117,"362":1.8042242527008057,"363":-5.619639873504639,"364":2.9458887577056885,"365":6.297163486480713,"366":0.46631577610969543,"367":11.577279090881348,"368":-3.5418975353240967,"369":1.2714717388153076,"370":4.7733259201049805,"371":-6.897208213806152,"372":-1.1319315433502197,"373":2.018324375152588,"374":-6.374995231628418,"375":-1.8753880262374878,"376":-0.8950583934783936,"377":6.586002349853516,"378":-1.1019794940948486,"379":-5.457874298095703,"380":-0.6708024740219116,"381":-1.9342472553253174,"382":3.160892963409424,"383":-2.9852325916290283,"384":0.5668460130691528,"385":-1.2150355577468872,"386":2.8958685398101807,"387":-0.5339529514312744,"388":2.9861910343170166,"389":-2.275134801864624,"390":0.20161820948123932,"391":-1.2541916370391846,"392":-3.1561079025268555,"393":-5.296633243560791,"394":-0.9168647527694702,"395":-0.21718503534793854,"396":-1.9715526103973389,"397":0.2214420735836029,"398":-2.4861085414886475,"399":-1.1169353723526,"400":0.3232082426548004,"401":-3.7365269660949707,"402":-1.2411417961120605,"403":1.919961929321289,"404":0.7985344529151917,"405":2.8785696029663086,"406":0.6897250413894653,"407":0.17932581901550293,"408":2.047734022140503,"409":0.09315835684537888,"410":0.5251811146736145,"411":-3.7478086948394775,"412":-3.0411627292633057,"413":-0.22356346249580383,"414":5.084163665771484,"415":-0.8957564234733582,"416":-0.9166916012763977,"417":5.592385768890381,"418":18.856840133666992,"419":-4.558738708496094,"420":-3.0423123836517334,"421":-1.9510979652404785,"422":20.1094970703125,"423":16.567996978759766,"424":-2.8602027893066406,"425":-0.2672511339187622,"426":1.6719110012054443,"427":-7.228231430053711,"428":1.1050046682357788,"429":-0.9123629927635193,"430":10.768994331359863,"431":-7.502898216247559,"432":2.9818763732910156,"433":4.971278667449951,"434":-10.992658615112305,"435":-8.625995635986328,"436":10.155815124511719,"437":7.084982872009277,"438":4.656485080718994,"439":8.113802909851074,"440":16.373048782348633,"441":-2.491499423980713,"442":-4.707181930541992,"443":1.1629503965377808,"444":-9.113468170166016,"445":-8.387234687805176,"446":-16.265592575073242,"447":6.63616943359375,"448":11.826995849609375,"449":-12.227396011352539,"450":2.162102699279785,"451":-8.612231254577637,"452":-9.795230865478516,"453":-10.64094352722168,"454":10.227008819580078,"455":-6.049109935760498,"456":4.175671100616455,"457":-0.3767898678779602,"458":-1.5520596504211426,"459":3.052649736404419,"460":6.850996971130371,"461":2.545314311981201,"462":-3.4811947345733643,"463":-1.6502399444580078,"464":2.3618581295013428,"465":-5.037364959716797,"466":-1.6298420429229736,"467":3.7507758140563965,"468":7.439433574676514,"469":-1.5437977313995361,"470":1.6196023225784302,"471":-0.22586894035339355,"472":-6.386376857757568,"473":4.418412685394287,"474":9.092000007629395,"475":0.552871823310852,"476":0.25363990664482117,"477":0.6001624464988708,"478":0.9493620991706848,"479":1.7217812538146973,"480":0.3436771333217621,"481":-2.2771522998809814,"482":-7.481678009033203,"483":-5.029445171356201,"484":-2.822878360748291,"485":-0.26656681299209595,"486":4.863453388214111,"487":-1.2201223373413086,"488":-0.46893739700317383,"489":-3.276433229446411,"490":-3.9113707542419434,"491":-5.132112503051758,"492":-0.7962697744369507,"493":-3.0444016456604004,"494":5.167163848876953,"495":-4.008047580718994,"496":8.778475761413574,"497":-5.904036045074463,"498":8.21459674835205,"499":6.23913049697876,"500":-1.2006926536560059,"501":5.875572681427002,"502":-6.140101432800293,"503":0.03419923782348633,"504":3.4187259674072266,"505":-10.84914779663086,"506":1.1370335817337036,"507":-5.093076229095459,"508":2.4805948734283447,"509":2.033564329147339,"510":-5.577917098999023,"511":-8.818923950195312,"512":0.44816505908966064,"513":5.123710632324219,"514":5.183520793914795,"515":4.840715408325195,"516":2.7621352672576904,"517":-1.4657948017120361,"518":-2.931307792663574,"519":1.252395510673523,"520":5.56879997253418,"521":-5.4371538162231445,"522":-3.904358148574829,"523":7.039918422698975,"524":6.909761905670166,"525":-4.087700366973877,"526":-4.230037212371826,"527":-1.9821263551712036,"528":2.2806148529052734,"529":-10.164204597473145,"530":-1.67986261844635,"531":4.358526706695557,"532":7.4000773429870605,"533":-1.318852186203003,"534":-5.822691917419434,"535":2.463286876678467,"536":8.527276992797852,"537":3.91184401512146,"538":-6.733602523803711,"539":-1.74067223072052,"540":1.5929009914398193,"541":-5.135061264038086,"542":-4.524874687194824,"543":6.3641252517700195,"544":6.069014549255371,"545":-1.3301963806152344,"546":4.766655445098877,"547":0.5869273543357849,"548":-2.939133405685425,"549":2.3025176525115967,"550":12.668045997619629,"551":3.709869146347046,"552":3.3675200939178467,"553":3.241770029067993,"554":1.6278578042984009,"555":1.113284945487976,"556":-6.90848970413208,"557":-1.1987961530685425,"558":-3.0732009410858154,"559":-7.457887649536133,"560":-7.327210426330566,"561":4.102290153503418,"562":4.24666166305542,"563":4.736268520355225,"564":2.070847988128662,"565":-1.0066646337509155,"566":-5.515935897827148,"567":-4.8873724937438965,"568":1.7118581533432007,"569":-3.9962704181671143,"570":0.5381688475608826,"571":-1.6662794351577759,"572":-0.7670786380767822,"573":-6.166981220245361,"574":1.571156620979309,"575":0.086216501891613,"576":-2.2504825592041016,"577":-0.9044906497001648,"578":0.9010608792304993,"579":-1.6975712776184082,"580":4.107186794281006,"581":2.060392141342163,"582":-3.732760190963745,"583":2.844637632369995,"584":0.19342614710330963,"585":4.231570720672607,"586":0.9231848120689392,"587":-1.511914849281311,"588":-1.284589409828186,"589":-2.4186301231384277,"590":0.22603435814380646,"591":-0.17682687938213348,"592":3.944305419921875,"593":0.05499928817152977,"594":-0.4301190674304962,"595":-0.48429232835769653,"596":-2.4198079109191895,"597":0.07082084566354752,"598":-0.25693029165267944,"599":-1.6606987714767456,"600":3.7823166847229004,"601":1.644188642501831,"602":-0.33532172441482544,"603":-2.4851725101470947,"604":1.1963998079299927,"605":-0.4263824224472046,"606":3.1615729331970215,"607":-2.540435552597046,"608":4.476306915283203,"609":-3.727252244949341,"610":-2.980344533920288,"611":-5.833120822906494,"612":10.081543922424316,"613":7.191885948181152,"614":-4.487825393676758,"615":-2.4788970947265625,"616":-6.936922550201416,"617":-21.721656799316406,"618":6.835381507873535,"619":1.1697815656661987,"620":-2.5781545639038086,"621":3.1459124088287354,"622":5.039658546447754,"623":6.046225547790527,"624":4.356935501098633,"625":-6.074426651000977,"626":5.65744161605835,"627":4.413610458374023,"628":8.638400077819824,"629":12.150117874145508,"630":-7.2162957191467285,"631":-3.571129560470581,"632":3.9282174110412598,"633":10.67418098449707,"634":-0.36287981271743774,"635":-0.5339400172233582,"636":-5.339921951293945,"637":8.275586128234863,"638":-4.625698089599609,"639":-13.473783493041992,"640":-1.6286849975585938,"641":-0.4496398866176605,"642":-10.230615615844727,"643":-1.061414122581482,"644":9.764883995056152,"645":-1.6646080017089844,"646":-7.480970859527588,"647":-3.4445581436157227,"648":-7.093303680419922,"649":-4.449278354644775,"650":-9.355534553527832,"651":-2.8778076171875,"652":-2.982522487640381,"653":4.285547256469727,"654":-7.139917850494385,"655":2.569338798522949,"656":4.201955318450928,"657":0.7677119374275208,"658":4.406431674957275,"659":7.242648601531982,"660":5.714205265045166,"661":2.661562919616699,"662":-0.6559270024299622,"663":0.11712724715471268,"664":3.6551246643066406,"665":-1.7362127304077148,"666":1.5749809741973877,"667":13.136425018310547,"668":1.7360241413116455,"669":-8.234575271606445,"670":-2.9258909225463867,"671":-0.5677992701530457,"672":-1.5092536211013794,"673":9.179271697998047,"674":-2.4828710556030273,"675":6.978612422943115,"676":-6.5109992027282715,"677":3.78732967376709,"678":3.06174635887146,"679":0.2190256267786026,"680":-0.8370766043663025,"681":5.6394171714782715,"682":-2.455817222595215,"683":-1.4282810688018799,"684":-5.466091632843018,"685":0.5017798542976379,"686":-4.422938346862793,"687":-2.3009676933288574,"688":1.539443016052246,"689":-6.724325180053711,"690":-0.5644254088401794,"691":-5.585989475250244,"692":5.180647850036621,"693":2.9169204235076904,"694":0.553856611251831,"695":-0.7621195316314697,"696":0.1070333868265152,"697":2.685964345932007,"698":-3.0373759269714355,"699":2.671875476837158,"700":0.30406638979911804,"701":-2.72033429145813,"702":-4.898155212402344,"703":6.086583137512207,"704":-7.905820846557617,"705":-6.243541717529297,"706":-2.8909504413604736,"707":0.056879617273807526,"708":4.109446048736572,"709":-0.4170984923839569,"710":1.1874393224716187,"711":4.191665172576904,"712":-3.1063144207000732,"713":-0.07361013442277908,"714":-14.643027305603027,"715":4.10843563079834,"716":4.823184967041016,"717":7.719377040863037,"718":3.347989797592163,"719":8.98869800567627,"720":12.005610466003418,"721":1.9726793766021729,"722":-2.904975175857544,"723":0.1980743110179901,"724":-5.80440616607666,"725":0.4451904892921448,"726":-2.820694923400879,"727":-1.0702763795852661,"728":-8.67408275604248,"729":-1.4704145193099976,"730":-2.058811664581299,"731":0.03851967304944992,"732":-0.78089439868927,"733":0.6159520745277405,"734":3.5372378826141357,"735":8.795761108398438,"736":2.940941572189331,"737":0.07577650249004364,"738":-3.0568923950195312,"739":0.02905500866472721,"740":2.761636972427368,"741":-1.7284011840820312,"742":-4.7210164070129395,"743":5.544228553771973,"744":-4.868349075317383,"745":-4.420425891876221,"746":-0.5414153933525085,"747":-3.223695755004883,"748":-6.672762870788574,"749":3.5480051040649414,"750":3.803687572479248,"751":1.999660849571228,"752":-3.671973466873169,"753":0.5362197160720825,"754":4.109127521514893,"755":2.9052348136901855,"756":-0.341415673494339,"757":5.261624336242676,"758":-0.5385279655456543,"759":-1.8851608037948608,"760":0.40596333146095276,"761":-0.5743918418884277,"762":7.535888195037842,"763":6.022488117218018,"764":-8.36688232421875,"765":2.329930067062378,"766":4.41396951675415,"767":-0.9220578074455261,"768":-2.0751774311065674,"769":8.987552642822266,"770":-8.595062255859375,"771":-12.886770248413086,"772":-3.011730432510376,"773":-1.4277442693710327,"774":-8.266824722290039,"775":-2.0433285236358643,"776":-12.399582862854004,"777":-6.156881332397461,"778":-0.6738244891166687,"779":8.717397689819336,"780":2.8001532554626465,"781":3.38637638092041,"782":-6.583754539489746,"783":-3.1702239513397217,"784":-13.22693920135498,"785":-9.70605754852295,"786":10.744573593139648,"787":10.079352378845215,"788":2.266228437423706,"789":18.26789093017578,"790":1.7573271989822388,"791":-2.4949018955230713,"792":-0.06251725554466248,"793":5.333657264709473,"794":-0.1338115781545639,"795":-5.555024147033691,"796":4.873395919799805,"797":3.7427711486816406,"798":4.662067890167236,"799":-2.6474368572235107,"800":0.6190444231033325,"801":-7.786177158355713,"802":2.1441659927368164,"803":5.374444007873535,"804":4.666759014129639,"805":4.0429887771606445,"806":-4.894976615905762,"807":12.587686538696289,"808":2.9276185035705566,"809":-9.203330039978027,"810":12.670584678649902,"811":-9.033248901367188,"812":-0.8427333235740662,"813":9.451772689819336,"814":-3.6326754093170166,"815":-9.300861358642578,"816":-1.2551621198654175,"817":-4.959346771240234,"818":-6.164961338043213,"819":3.469390869140625,"820":8.080303192138672,"821":-4.359607219696045,"822":-3.970914840698242,"823":-7.878891468048096,"824":-1.7288875579833984,"825":-5.663825988769531,"826":-4.087714672088623,"827":7.66079044342041,"828":8.05724811553955,"829":-2.6031386852264404,"830":-1.337612509727478,"831":1.8505115509033203,"832":-3.0773775577545166,"833":-2.2733871936798096,"834":13.153960227966309,"835":2.621319055557251,"836":-1.0243747234344482,"837":-9.54362964630127,"838":-0.7419244647026062,"839":-1.5519441366195679,"840":3.600389242172241,"841":-0.5046973824501038,"842":-1.1671063899993896,"843":-6.992328643798828,"844":13.4917573928833,"845":-12.701066970825195,"846":-4.464015960693359,"847":-3.2345364093780518,"848":3.500544548034668,"849":-0.2625482678413391,"850":-18.328697204589844,"851":-14.49414348602295,"852":-6.484126091003418,"853":-9.048677444458008,"854":-15.565252304077148,"855":-1.4182014465332031,"856":-2.063199043273926,"857":-12.380142211914062,"858":-13.744762420654297,"859":9.700102806091309,"860":2.1041576862335205,"861":7.320672035217285,"862":-11.63598346710205,"863":-8.517640113830566,"864":3.67576265335083,"865":0.41943642497062683,"866":-13.996768951416016,"867":-4.648362636566162,"868":-1.5792642831802368,"869":9.297131538391113,"870":11.582443237304688,"871":-6.668264865875244,"872":15.72546100616455,"873":4.446635723114014,"874":-11.926119804382324,"875":7.30289363861084,"876":2.0795724391937256,"877":17.193052291870117,"878":-1.0140889883041382,"879":-11.818218231201172,"880":4.161372661590576,"881":2.5734755992889404,"882":3.937638759613037,"883":3.1610448360443115,"884":-9.05366325378418,"885":-11.805294036865234,"886":-1.8859976530075073,"887":4.583406448364258,"888":9.471269607543945,"889":-12.240694999694824,"890":-15.339943885803223,"891":1.3199822902679443,"892":-1.7102868556976318,"893":-11.41164779663086,"894":-1.2101490497589111,"895":-0.21219977736473083,"896":-0.8281038403511047,"897":-0.11876493692398071,"898":-7.479668617248535,"899":-0.5387080907821655,"900":7.278005599975586,"901":14.921651840209961,"902":7.006181716918945,"903":3.185236692428589,"904":-17.15984535217285,"905":-0.5149338841438293,"906":4.534436225891113,"907":6.0101423263549805,"908":15.372282028198242,"909":11.937248229980469,"910":-9.873732566833496,"911":8.402626991271973,"912":11.748416900634766,"913":-8.68074893951416,"914":-1.1845850944519043,"915":-5.657209873199463,"916":-1.0112563371658325,"917":2.7050254344940186,"918":1.940233826637268,"919":2.8249566555023193,"920":-12.61149787902832,"921":6.734270095825195,"922":-2.3364367485046387,"923":-5.959227085113525,"924":-1.8340471982955933,"925":0.7222939729690552,"926":5.02691125869751,"927":-2.1264166831970215,"928":-6.731741905212402,"929":-2.953489065170288,"930":12.01624870300293,"931":2.045923948287964,"932":7.701484680175781,"933":6.502432823181152,"934":-9.064178466796875,"935":-8.944377899169922,"936":0.9214465618133545,"937":3.3385469913482666,"938":7.513111591339111,"939":-0.3107115924358368,"940":4.532820701599121,"941":8.341777801513672,"942":3.504025459289551,"943":-7.720717430114746,"944":-1.8004214763641357,"945":-4.105195045471191,"946":0.20049893856048584,"947":-11.240886688232422,"948":0.2932080030441284,"949":4.996784687042236,"950":-5.820918560028076,"951":-4.772377014160156,"952":10.235631942749023,"953":-5.844000339508057,"954":7.588034152984619,"955":-1.9615819454193115,"956":7.846952438354492,"957":2.3988640308380127,"958":7.368468284606934,"959":2.706773281097412,"960":-2.8155126571655273,"961":-2.2051072120666504,"962":-4.233525276184082,"963":-13.44003963470459,"964":-0.527607262134552,"965":7.682863235473633,"966":1.0242799520492554,"967":0.8952782154083252,"968":-8.871310234069824,"969":6.7483439445495605,"970":1.216571569442749,"971":-5.1510114669799805,"972":4.659221649169922,"973":3.5587804317474365,"974":1.0970451831817627,"975":5.910977363586426,"976":-4.236110210418701,"977":-4.592118740081787,"978":-7.632752418518066,"979":4.252111911773682,"980":12.370888710021973,"981":-6.47886323928833,"982":-8.102317810058594,"983":-1.973190188407898,"984":1.8099671602249146,"985":-3.1713707447052,"986":-9.880845069885254,"987":6.860441207885742,"988":-4.9870405197143555,"989":2.7493505477905273,"990":-11.119125366210938,"991":7.529040336608887,"992":7.969797134399414,"993":16.735530853271484,"994":-12.77505111694336,"995":-1.28205144405365,"996":5.548605442047119,"997":-6.211803913116455,"998":-13.835185050964355,"999":2.294206142425537,"1000":-16.65011978149414,"1001":25.5384578704834,"1002":-7.955046653747559,"1003":-16.792335510253906,"1004":10.620024681091309,"1005":-8.087626457214355,"1006":-3.4132091999053955,"1007":-18.139904022216797,"1008":-1.4358211755752563,"1009":-7.837169647216797,"1010":5.2048139572143555,"1011":10.227142333984375,"1012":-10.541861534118652,"1013":-15.699346542358398,"1014":-2.135808229446411,"1015":-0.3571624755859375,"1016":4.22981595993042,"1017":-13.646880149841309,"1018":-4.788539409637451,"1019":5.092123985290527,"1020":24.31226921081543,"1021":0.21391920745372772,"1022":1.95098876953125,"1023":3.2315587997436523,"1024":-12.815706253051758,"1025":3.1089813709259033,"1026":3.6265640258789062,"1027":-2.043804168701172,"1028":-0.634282648563385,"1029":-4.4647908210754395,"1030":-1.9252358675003052,"1031":-16.93784523010254,"1032":14.267237663269043,"1033":4.4205803871154785,"1034":23.447534561157227,"1035":11.696087837219238,"1036":1.9303606748580933,"1037":4.532958507537842,"1038":-35.40849685668945,"1039":-2.185910701751709,"1040":-19.992332458496094,"1041":6.960948944091797,"1042":22.434185028076172,"1043":14.739608764648438,"1044":-17.97452163696289,"1045":-15.913065910339355,"1046":20.110485076904297,"1047":-21.690763473510742,"1048":-1.110864520072937,"1049":11.483141899108887,"1050":15.347174644470215,"1051":10.665567398071289,"1052":-4.3957200050354,"1053":-7.834737777709961,"1054":4.423097610473633,"1055":-16.45642852783203,"1056":11.920872688293457,"1057":-4.657266616821289,"1058":-5.0047783851623535,"1059":-3.6876139640808105,"1060":27.447126388549805,"1061":3.8808536529541016,"1062":-13.32907485961914,"1063":6.605734348297119,"1064":3.7915542125701904,"1065":13.763788223266602,"1066":1.4192641973495483,"1067":16.616106033325195,"1068":-10.47208023071289,"1069":-8.264057159423828,"1070":-5.6792168617248535,"1071":-2.549489974975586,"1072":5.09472131729126,"1073":-3.7863030433654785,"1074":1.127026081085205,"1075":-8.038287162780762,"1076":-5.174882888793945,"1077":-4.043811321258545,"1078":-5.349669456481934,"1079":-3.150468349456787,"1080":-7.4127421379089355,"1081":6.6851420402526855,"1082":-0.3500092029571533,"1083":-4.408130168914795,"1084":-0.09887225180864334,"1085":-2.675795316696167,"1086":0.4966795742511749,"1087":3.447648525238037,"1088":-0.8993752598762512,"1089":-2.813918113708496,"1090":3.625850200653076,"1091":15.861937522888184,"1092":4.091673374176025,"1093":-3.514336109161377,"1094":-9.33344554901123,"1095":7.776149749755859,"1096":0.2345120757818222,"1097":7.766600608825684,"1098":6.09973669052124,"1099":-5.4376301765441895,"1100":5.756891250610352,"1101":-10.474291801452637,"1102":5.356194972991943,"1103":1.7407227754592896,"1104":16.082229614257812,"1105":-14.988504409790039,"1106":0.6774059534072876,"1107":13.040562629699707,"1108":-13.946625709533691,"1109":3.8258795738220215,"1110":10.67728328704834,"1111":-9.226509094238281,"1112":21.65361976623535,"1113":15.678634643554688,"1114":0.09317430853843689,"1115":7.19255256652832,"1116":-7.963138580322266,"1117":-7.30593729019165,"1118":4.108847141265869,"1119":-22.760162353515625,"1120":-6.024146556854248,"1121":11.41073989868164,"1122":2.3303332328796387,"1123":-10.909392356872559,"1124":0.58890700340271,"1125":8.329092025756836,"1126":2.803022861480713,"1127":22.065319061279297,"1128":2.623964548110962,"1129":-11.903340339660645,"1130":8.046950340270996,"1131":-8.269718170166016,"1132":7.7403740882873535,"1133":-2.4124293327331543,"1134":-14.782979011535645,"1135":-3.8584704399108887,"1136":4.160956859588623,"1137":-10.021906852722168,"1138":7.353966236114502,"1139":-9.3615083694458,"1140":-3.2760164737701416,"1141":4.1819024085998535,"1142":1.0353186130523682,"1143":11.811188697814941,"1144":1.447201132774353,"1145":4.932618141174316,"1146":-2.388601303100586,"1147":-10.192441940307617,"1148":2.5313913822174072,"1149":3.9080617427825928,"1150":-18.341176986694336,"1151":-0.5701032876968384,"1152":1.4918972253799438,"1153":-4.536431312561035,"1154":-0.4544338285923004,"1155":-7.077600955963135,"1156":-2.2462403774261475,"1157":6.199519634246826,"1158":-0.9532841444015503,"1159":5.499459743499756,"1160":-10.651976585388184,"1161":-7.704218864440918,"1162":-12.202208518981934,"1163":3.7790863513946533,"1164":-15.385518074035645,"1165":-12.660612106323242,"1166":-4.488934516906738,"1167":-1.7283836603164673,"1168":-1.013541579246521,"1169":2.127446174621582,"1170":-5.632393836975098,"1171":9.668240547180176,"1172":1.5557070970535278,"1173":3.9534194469451904,"1174":-7.1096391677856445,"1175":-5.681697368621826,"1176":-6.28640079498291,"1177":3.2561161518096924,"1178":-5.371513843536377,"1179":-10.967941284179688,"1180":-3.2927699089050293,"1181":1.49391770362854,"1182":6.681190013885498,"1183":0.007844502106308937,"1184":-2.630988597869873,"1185":0.5814916491508484,"1186":11.010933876037598,"1187":-6.305108070373535,"1188":-1.9238137006759644,"1189":1.1732892990112305,"1190":-10.195158004760742,"1191":5.26815128326416,"1192":-17.07233238220215,"1193":8.306344985961914,"1194":-5.34468412399292,"1195":6.221822738647461,"1196":-5.360165596008301,"1197":-13.679844856262207,"1198":1.9185271263122559,"1199":-7.950108051300049,"1200":-0.13552133738994598,"1201":16.26346778869629,"1202":11.558262825012207,"1203":-3.9514431953430176,"1204":-3.5649361610412598,"1205":-2.818701982498169,"1206":2.3120055198669434,"1207":-17.971837997436523,"1208":0.8852748870849609,"1209":15.621376991271973,"1210":-2.0709288120269775,"1211":-6.267592430114746,"1212":19.59552001953125,"1213":11.522372245788574,"1214":-4.492620944976807,"1215":9.167165756225586,"1216":8.51215934753418,"1217":8.473732948303223,"1218":-21.719449996948242,"1219":-15.454519271850586,"1220":-4.361497402191162,"1221":20.54081916809082,"1222":-0.9891017079353333,"1223":3.3603274822235107,"1224":-2.6992976665496826,"1225":-1.217763066291809,"1226":31.9719181060791,"1227":-2.6899447441101074,"1228":-15.79155158996582,"1229":-3.7459897994995117,"1230":6.287205219268799,"1231":23.644126892089844,"1232":16.026817321777344,"1233":-19.402101516723633,"1234":-2.0172200202941895,"1235":-1.137550711631775,"1236":19.282733917236328,"1237":-2.454200029373169,"1238":15.707794189453125,"1239":-0.05930420756340027,"1240":14.915146827697754,"1241":20.181447982788086,"1242":3.08012318611145,"1243":-9.547996520996094,"1244":7.439605236053467,"1245":-4.28231954574585,"1246":29.659961700439453,"1247":3.2862372398376465,"1248":-20.33492088317871,"1249":-13.085808753967285,"1250":21.451608657836914,"1251":-11.117365837097168,"1252":-4.678424835205078,"1253":-10.87362289428711,"1254":10.720484733581543,"1255":0.2644153833389282,"1256":-0.16241705417633057,"1257":1.415225625038147,"1258":17.426563262939453,"1259":19.380136489868164,"1260":-1.6591107845306396,"1261":-4.860781192779541,"1262":3.190577507019043,"1263":-11.830625534057617,"1264":6.269843101501465,"1265":-8.121341705322266,"1266":-3.6533775329589844,"1267":-7.088890075683594,"1268":-9.298641204833984,"1269":-15.372859954833984,"1270":-4.513177871704102,"1271":-10.782992362976074,"1272":-3.138077974319458,"1273":9.825392723083496,"1274":-2.1217103004455566,"1275":-6.018559455871582,"1276":10.628559112548828,"1277":6.543859958648682,"1278":-4.808391571044922,"1279":-9.663954734802246,"1280":16.32630729675293,"1281":-5.722186088562012,"1282":-7.526852130889893,"1283":-4.973886966705322,"1284":7.773775577545166,"1285":-8.130425453186035,"1286":-4.381704807281494,"1287":-6.3847551345825195,"1288":-16.137462615966797,"1289":-4.411039352416992,"1290":7.43292236328125,"1291":-2.176022529602051,"1292":-5.528298377990723,"1293":5.159789085388184,"1294":-6.091660499572754,"1295":-5.988150596618652,"1296":3.2449283599853516,"1297":-2.7607157230377197,"1298":23.780738830566406,"1299":13.743051528930664,"1300":16.872512817382812,"1301":24.90795135498047,"1302":-0.10835172235965729,"1303":1.4233708381652832,"1304":-0.6286221742630005,"1305":-10.825995445251465,"1306":-20.681987762451172,"1307":29.039209365844727,"1308":12.902216911315918,"1309":-3.693497657775879,"1310":-2.137937307357788,"1311":-1.008365273475647,"1312":20.48345184326172,"1313":-22.6961612701416,"1314":-0.773465096950531,"1315":13.442862510681152,"1316":-3.3789730072021484,"1317":-1.8285936117172241,"1318":3.2187232971191406,"1319":-6.591884613037109,"1320":-12.846061706542969,"1321":-26.790359497070312,"1322":33.71484375,"1323":18.57927703857422,"1324":-5.151615619659424,"1325":-26.521650314331055,"1326":20.524600982666016,"1327":-20.735280990600586,"1328":-9.334009170532227,"1329":16.70189666748047,"1330":0.7778329253196716,"1331":-2.396498680114746,"1332":11.25490665435791,"1333":2.351288080215454,"1334":-3.709770679473877,"1335":-26.30377769470215,"1336":-14.436461448669434,"1337":33.99340057373047,"1338":33.66412353515625,"1339":-31.702749252319336,"1340":-12.334086418151855,"1341":25.27602767944336,"1342":12.964493751525879,"1343":-1.6801719665527344,"1344":7.963400840759277,"1345":20.195972442626953,"1346":-13.504870414733887,"1347":28.615013122558594,"1348":-11.600723266601562,"1349":-13.884869575500488,"1350":-17.548643112182617,"1351":-40.73707580566406,"1352":17.771644592285156,"1353":42.458858489990234,"1354":25.031036376953125,"1355":1.407056212425232,"1356":-27.590965270996094,"1357":-8.62692928314209,"1358":-20.785322189331055,"1359":-4.462681293487549,"1360":-20.24947738647461,"1361":-1.027662754058838,"1362":19.09438705444336,"1363":-6.900690078735352,"1364":-26.71663475036621,"1365":13.539665222167969,"1366":-23.04667091369629,"1367":-20.29071807861328,"1368":1.9809458255767822,"1369":0.8840609788894653,"1370":-7.0383124351501465,"1371":-0.09074965864419937,"1372":1.0183653831481934,"1373":-1.3901840448379517,"1374":0.9832280278205872,"1375":-2.9088869094848633,"1376":-3.575176239013672,"1377":3.9280784130096436,"1378":2.273408889770508,"1379":-4.522712707519531,"1380":1.7400696277618408,"1381":-0.4661392867565155,"1382":1.621050477027893,"1383":-5.8719611167907715,"1384":-2.2331554889678955,"1385":1.9680622816085815,"1386":4.118381023406982,"1387":0.9737724661827087,"1388":-1.1282119750976562,"1389":3.2716588973999023,"1390":3.933891773223877,"1391":-3.8346221446990967,"1392":0.574937641620636,"1393":-1.6096123456954956,"1394":0.5754799246788025,"1395":1.4513317346572876,"1396":-2.950685739517212,"1397":0.7566573023796082,"1398":2.2245328426361084,"1399":-1.7957183122634888,"1400":2.3667304515838623,"1401":-2.1739587783813477,"1402":-5.6604228019714355,"1403":1.1655614376068115,"1404":1.3457411527633667,"1405":-2.8553905487060547,"1406":-1.1537457704544067,"1407":-0.3944096863269806,"1408":-2.6395456790924072,"1409":-1.8250219821929932,"1410":-2.4139251708984375,"1411":-3.077178955078125,"1412":-0.7185766696929932,"1413":-0.829677939414978,"1414":-1.4314053058624268,"1415":0.4525582492351532,"1416":2.0902767181396484,"1417":-0.06301092356443405,"1418":-0.8663883805274963,"1419":3.512718677520752,"1420":-0.26017507910728455,"1421":-0.5989958643913269,"1422":-0.9414656758308411,"1423":1.9308748245239258,"1424":2.527738332748413,"1425":-2.597836971282959,"1426":-1.8089866638183594,"1427":2.3815557956695557,"1428":-2.32930850982666,"1429":-1.0482733249664307,"1430":1.4878093004226685,"1431":0.4107568860054016,"1432":-2.1826131343841553,"1433":0.547822892665863,"1434":0.6177657246589661,"1435":-0.3372898995876312,"1436":0.0634356439113617,"1437":-1.8966957330703735,"1438":0.886134684085846,"1439":-0.1268773078918457,"1440":3.917367935180664,"1441":1.8573516607284546,"1442":-1.245473861694336,"1443":-1.783886194229126,"1444":0.0454784594476223,"1445":0.060554780066013336,"1446":0.048347387462854385,"1447":-0.05032600462436676,"1448":-0.0006478246650658548,"1449":-0.05647315829992294,"1450":-0.060350701212882996,"1451":0.019051875919103622,"1452":0.04689236730337143,"1453":0.05434681102633476,"1454":0.022397033870220184,"1455":0.033607400953769684,"1456":-0.03320416435599327,"1457":0.057956989854574203,"1458":0.04597940295934677,"1459":0.009328930638730526,"1460":0.03306994214653969,"1461":-0.0576043538749218,"1462":0.046912193298339844,"1463":-0.06216542422771454,"1464":-0.0011087149614468217,"1465":0.0010784098412841558,"1466":-0.06100707873702049,"1467":-0.015151189640164375,"1468":-0.02316855639219284,"1469":-0.025170037522912025,"1470":0.016460008919239044,"1471":0.005216359160840511,"1472":0.0077131688594818115,"1473":-0.019076760858297348,"1474":-0.05339962616562843,"1475":0.02131771855056286,"1476":0.0499371662735939,"1477":0.030151549726724625,"1478":-0.028229329735040665,"1479":0.05110052973031998,"1480":-0.014206732623279095,"1481":0.0016468145186081529}},"hiddenLayers":[{"inputMatrix":{"rows":20,"columns":38,"weights":{"0":2.026292324066162,"1":1.035050868988037,"2":2.5670225620269775,"3":0.21955205500125885,"4":-2.2176358699798584,"5":-1.7169245481491089,"6":0.7675203680992126,"7":1.3042423725128174,"8":2.190045118331909,"9":-0.3066170811653137,"10":0.8005018830299377,"11":1.6566966772079468,"12":-2.705479145050049,"13":-0.391912579536438,"14":1.739591360092163,"15":-1.3129276037216187,"16":1.2559291124343872,"17":0.6450063586235046,"18":-1.67826509475708,"19":-0.28126102685928345,"20":-0.5070803761482239,"21":-2.822096347808838,"22":1.942071557044983,"23":1.3053120374679565,"24":1.7227325439453125,"25":3.150404930114746,"26":1.9114623069763184,"27":0.6427321434020996,"28":1.2308377027511597,"29":-0.03637376427650452,"30":-1.3843435049057007,"31":-0.47025057673454285,"32":-1.6522109508514404,"33":1.1833997964859009,"34":-0.04572635516524315,"35":0.45656055212020874,"36":-1.9115172624588013,"37":0.3784470558166504,"38":2.013995409011841,"39":1.3547801971435547,"40":1.6079812049865723,"41":-0.37462422251701355,"42":2.3718173503875732,"43":-0.9490518569946289,"44":1.319583773612976,"45":3.4983103275299072,"46":1.3840528726577759,"47":1.1340656280517578,"48":-0.1601179540157318,"49":0.7666482925415039,"50":-1.5310267210006714,"51":-0.5568432807922363,"52":-2.3061535358428955,"53":0.10580699145793915,"54":0.09647515416145325,"55":-1.6147756576538086,"56":-2.86240291595459,"57":-1.7958576679229736,"58":0.21124985814094543,"59":-1.2807093858718872,"60":3.476452350616455,"61":2.631488084793091,"62":2.420992136001587,"63":1.3056048154830933,"64":0.817233145236969,"65":-0.6165407299995422,"66":-2.6999268531799316,"67":-3.022130012512207,"68":3.379390001296997,"69":-0.43280866742134094,"70":-0.03932956978678703,"71":-0.33760973811149597,"72":-0.8288528919219971,"73":-0.5206707715988159,"74":2.251166343688965,"75":1.9520761966705322,"76":-1.0769232511520386,"77":1.0212578773498535,"78":-1.331203818321228,"79":1.840453028678894,"80":-1.8608167171478271,"81":-0.9898556470870972,"82":-2.8841257095336914,"83":-1.859234094619751,"84":0.990924060344696,"85":0.33014047145843506,"86":0.7954148054122925,"87":1.367750883102417,"88":0.7614055275917053,"89":-0.708797037601471,"90":0.006362364161759615,"91":-3.014573574066162,"92":0.5394128561019897,"93":3.466970920562744,"94":0.6633684635162354,"95":0.7406962513923645,"96":-4.479695796966553,"97":0.1349022537469864,"98":0.7041943073272705,"99":0.6744813919067383,"100":-0.48059457540512085,"101":-2.1107451915740967,"102":-2.5060441493988037,"103":0.7072568535804749,"104":-0.5121090412139893,"105":-0.0013044216902926564,"106":-1.9784038066864014,"107":1.9658643007278442,"108":4.803887844085693,"109":2.229187250137329,"110":-0.8381807804107666,"111":-0.08711425960063934,"112":-0.35448867082595825,"113":-1.6581573486328125,"114":0.5495384931564331,"115":0.6010549664497375,"116":0.11390727013349533,"117":-0.1724168062210083,"118":0.05662110820412636,"119":-1.2938787937164307,"120":0.917408287525177,"121":-0.8502714037895203,"122":-0.25734826922416687,"123":-0.48628032207489014,"124":0.16283470392227173,"125":-1.377320408821106,"126":-2.293703079223633,"127":1.8631340265274048,"128":1.9610799551010132,"129":-1.491624116897583,"130":0.7991603016853333,"131":-0.011663072742521763,"132":0.12302599102258682,"133":-4.450876235961914,"134":1.1507757902145386,"135":-2.013925552368164,"136":1.684400200843811,"137":0.26591166853904724,"138":2.945336103439331,"139":0.17145608365535736,"140":1.2328397035598755,"141":-0.06308859586715698,"142":1.4549297094345093,"143":-0.9462652802467346,"144":-0.46433332562446594,"145":2.533468723297119,"146":0.8197026252746582,"147":1.5909544229507446,"148":2.527562141418457,"149":1.217693567276001,"150":-0.13779154419898987,"151":3.0182247161865234,"152":0.4540683925151825,"153":2.329735040664673,"154":-0.3741222321987152,"155":2.7611141204833984,"156":1.043644666671753,"157":0.6195329427719116,"158":3.2950706481933594,"159":-1.038041353225708,"160":-0.2962702512741089,"161":0.9612396359443665,"162":-2.5679774284362793,"163":-1.517398476600647,"164":-3.134368658065796,"165":-1.2988897562026978,"166":-1.4478975534439087,"167":-3.7456209659576416,"168":-0.009526324458420277,"169":0.7340224981307983,"170":-0.044529929757118225,"171":1.2707887887954712,"172":0.05215179920196533,"173":-1.1013072729110718,"174":1.6930558681488037,"175":-0.24974425137043,"176":-0.6906863451004028,"177":-2.6462745666503906,"178":4.31341028213501,"179":0.1670636534690857,"180":-0.5464276671409607,"181":-1.3722009658813477,"182":0.591376543045044,"183":-0.3174290359020233,"184":0.6362440586090088,"185":-1.0741246938705444,"186":-0.2679871618747711,"187":-0.5774948000907898,"188":-0.31291258335113525,"189":2.321596384048462,"190":-0.348328173160553,"191":-0.8184133172035217,"192":1.1218547821044922,"193":-0.7055508494377136,"194":0.8796831965446472,"195":-0.5980429649353027,"196":1.0232641696929932,"197":-0.5741672515869141,"198":0.8690891861915588,"199":-2.212611675262451,"200":2.732163190841675,"201":3.3829386234283447,"202":-0.789640486240387,"203":0.7842090725898743,"204":-4.285829067230225,"205":-0.018836986273527145,"206":2.0499396324157715,"207":0.3883821964263916,"208":-3.714456796646118,"209":-0.05109299719333649,"210":0.8366962671279907,"211":-1.0756131410598755,"212":-1.0777019262313843,"213":1.3957096338272095,"214":-1.4862695932388306,"215":0.44399479031562805,"216":-0.6226168870925903,"217":-0.06370758265256882,"218":1.1001806259155273,"219":-2.797539710998535,"220":-1.1214666366577148,"221":1.2803367376327515,"222":-0.8718540072441101,"223":-0.5672744512557983,"224":-1.5103285312652588,"225":-0.6123529672622681,"226":2.2883212566375732,"227":-1.1804776191711426,"228":-0.20189759135246277,"229":-0.854698896408081,"230":-1.3255341053009033,"231":0.6335838437080383,"232":1.253252387046814,"233":-0.7673661112785339,"234":0.8113729953765869,"235":-0.4519141614437103,"236":3.115650177001953,"237":0.8305318355560303,"238":-1.4843785762786865,"239":1.9501327276229858,"240":-0.8514953255653381,"241":-0.7890421152114868,"242":-1.204595685005188,"243":0.3507044017314911,"244":3.27270245552063,"245":1.3487056493759155,"246":-0.8489359617233276,"247":-0.9483930468559265,"248":2.133549928665161,"249":-3.2368390560150146,"250":-2.2585127353668213,"251":1.0981056690216064,"252":2.0886566638946533,"253":1.0221229791641235,"254":1.9243484735488892,"255":0.8659392595291138,"256":-0.70893794298172,"257":0.19040840864181519,"258":-4.47145938873291,"259":-1.1461864709854126,"260":0.23141439259052277,"261":1.0952008962631226,"262":5.644868850708008,"263":0.9885410070419312,"264":-0.11935186386108398,"265":4.792904853820801,"266":-0.10691887885332108,"267":0.17653727531433105,"268":1.4521907567977905,"269":1.6214689016342163,"270":-0.298675000667572,"271":-0.3112410306930542,"272":1.798223853111267,"273":2.792961835861206,"274":-1.4594142436981201,"275":3.6012396812438965,"276":-4.633856773376465,"277":-0.005651636049151421,"278":1.3867062330245972,"279":-1.2263129949569702,"280":2.3650970458984375,"281":-1.7657060623168945,"282":-2.876682758331299,"283":-2.049221992492676,"284":2.846280336380005,"285":1.1108564138412476,"286":0.8134164214134216,"287":1.7243276834487915,"288":0.48647063970565796,"289":-0.7572575807571411,"290":0.2949715852737427,"291":-0.11066022515296936,"292":1.6244738101959229,"293":0.6240442395210266,"294":-0.628670334815979,"295":1.0170283317565918,"296":1.5583077669143677,"297":1.2372270822525024,"298":-1.634833812713623,"299":1.1110485792160034,"300":1.056965947151184,"301":-0.3438090682029724,"302":1.0693402290344238,"303":-1.233227252960205,"304":1.9193207025527954,"305":1.2414891719818115,"306":-3.526571035385132,"307":0.8287994861602783,"308":-0.33332186937332153,"309":1.5362145900726318,"310":-1.5693527460098267,"311":-2.262895345687866,"312":1.5556739568710327,"313":1.3716063499450684,"314":-3.461454391479492,"315":-0.9618608951568604,"316":2.6990463733673096,"317":0.6940813660621643,"318":1.5699306726455688,"319":-0.25791358947753906,"320":-1.5094107389450073,"321":-0.8740241527557373,"322":0.5698114633560181,"323":-0.632997989654541,"324":-1.8383532762527466,"325":-0.9963697195053101,"326":0.42583003640174866,"327":0.5773751139640808,"328":-1.011129379272461,"329":-2.5766541957855225,"330":0.10099149495363235,"331":0.7198061347007751,"332":-0.41679897904396057,"333":1.4714735746383667,"334":-2.49129056930542,"335":1.143971562385559,"336":2.4126529693603516,"337":2.5594537258148193,"338":-0.9640956521034241,"339":3.205772876739502,"340":1.4869135618209839,"341":2.078665256500244,"342":-0.778038501739502,"343":0.7135282158851624,"344":1.8313806056976318,"345":-1.1290621757507324,"346":-2.4504587650299072,"347":-3.332601547241211,"348":-0.7803162336349487,"349":0.027949804440140724,"350":-1.254217267036438,"351":-1.5477360486984253,"352":-1.6663877964019775,"353":1.5389187335968018,"354":1.3758964538574219,"355":0.22688281536102295,"356":-0.10932967066764832,"357":0.041467223316431046,"358":-1.3566662073135376,"359":2.4242806434631348,"360":1.0582859516143799,"361":0.005894238594919443,"362":-2.66495680809021,"363":1.7365665435791016,"364":-2.574209690093994,"365":-2.0695066452026367,"366":0.3079008162021637,"367":2.844790458679199,"368":-3.2962496280670166,"369":-0.7464598417282104,"370":0.7979059815406799,"371":0.64018315076828,"372":-4.75022554397583,"373":-0.9712269306182861,"374":-0.2995513677597046,"375":2.810368299484253,"376":1.4492436647415161,"377":-1.316028118133545,"378":-1.1910487413406372,"379":-1.6120009422302246,"380":-1.0011316537857056,"381":0.9182382225990295,"382":0.45801684260368347,"383":2.5227742195129395,"384":0.7023759484291077,"385":0.976901113986969,"386":-1.1042613983154297,"387":0.2539454400539398,"388":2.0354671478271484,"389":-1.4801796674728394,"390":-1.6896430253982544,"391":-0.2811242640018463,"392":0.27088508009910583,"393":0.7455074191093445,"394":2.3293306827545166,"395":-1.9068012237548828,"396":-3.6388394832611084,"397":-1.8533494472503662,"398":0.18254078924655914,"399":2.448700189590454,"400":-2.8610668182373047,"401":-2.7061383724212646,"402":-2.221034526824951,"403":3.077556848526001,"404":-2.0823988914489746,"405":-3.0326426029205322,"406":-1.2263474464416504,"407":0.4406224489212036,"408":-0.9514939188957214,"409":-2.125746965408325,"410":-2.199719190597534,"411":2.7879693508148193,"412":0.3515997529029846,"413":1.2076107263565063,"414":0.6276521682739258,"415":-0.020996276289224625,"416":-0.8615060448646545,"417":0.6149972081184387,"418":-2.3691303730010986,"419":1.7221262454986572,"420":0.06888727843761444,"421":-0.33543094992637634,"422":-1.59442138671875,"423":0.940223217010498,"424":0.7027003765106201,"425":-1.566676139831543,"426":-1.3590764999389648,"427":2.9191360473632812,"428":1.9314764738082886,"429":0.4494958519935608,"430":-1.2860933542251587,"431":0.7763507962226868,"432":-1.05089271068573,"433":2.563626766204834,"434":1.9875446557998657,"435":-0.3203778862953186,"436":-1.7895222902297974,"437":-2.227766513824463,"438":0.005735765211284161,"439":0.38963332772254944,"440":0.7472059726715088,"441":-1.2006890773773193,"442":2.0240137577056885,"443":1.0904958248138428,"444":-2.240551710128784,"445":-0.4961152672767639,"446":1.3753246068954468,"447":-1.8537406921386719,"448":0.5858234167098999,"449":1.9452362060546875,"450":1.1439242362976074,"451":1.1431431770324707,"452":1.2528057098388672,"453":-0.7078639268875122,"454":1.6169962882995605,"455":-0.6697998642921448,"456":-1.1312487125396729,"457":3.871107816696167,"458":-1.3855335712432861,"459":2.287269115447998,"460":-2.224942922592163,"461":-0.5778118968009949,"462":0.4529503583908081,"463":-0.43196582794189453,"464":1.5230680704116821,"465":1.030949354171753,"466":-3.8917388916015625,"467":1.0806368589401245,"468":-1.0362985134124756,"469":1.9228583574295044,"470":-3.6674633026123047,"471":-2.106534957885742,"472":-0.4972970187664032,"473":0.4341537058353424,"474":-1.7891273498535156,"475":-1.3980634212493896,"476":0.014753967523574829,"477":-3.0329134464263916,"478":-0.7875776886940002,"479":1.8738127946853638,"480":-0.0005170240183360875,"481":-0.622787356376648,"482":0.682283878326416,"483":0.298129677772522,"484":-0.581726610660553,"485":-4.064718246459961,"486":-0.9344649314880371,"487":1.2054781913757324,"488":1.0121879577636719,"489":0.7263762354850769,"490":1.2257481813430786,"491":2.280785083770752,"492":-0.9459900856018066,"493":0.5697820782661438,"494":-2.2515833377838135,"495":0.18815027177333832,"496":0.7271385788917542,"497":-0.27595940232276917,"498":-1.9194294214248657,"499":-1.8965516090393066,"500":1.1142176389694214,"501":1.0045521259307861,"502":2.242514133453369,"503":-0.6128339171409607,"504":0.6274076104164124,"505":2.1989128589630127,"506":-1.2900117635726929,"507":0.3171897530555725,"508":1.8652743101119995,"509":3.226386547088623,"510":2.9763131141662598,"511":0.21654057502746582,"512":2.1453630924224854,"513":0.11300066858530045,"514":0.2572817802429199,"515":-0.3844201862812042,"516":0.33210626244544983,"517":2.5184884071350098,"518":1.103153944015503,"519":0.9431127905845642,"520":-0.846378743648529,"521":0.19206324219703674,"522":0.019771479070186615,"523":-2.471449851989746,"524":3.1937015056610107,"525":4.025057792663574,"526":-2.1638834476470947,"527":-2.775475263595581,"528":0.5608546137809753,"529":-0.3078218102455139,"530":-3.3627912998199463,"531":1.0781114101409912,"532":-3.466209888458252,"533":0.7447115778923035,"534":-1.9669567346572876,"535":1.4026997089385986,"536":-0.1391092836856842,"537":-1.6038657426834106,"538":-1.2721905708312988,"539":-2.514796018600464,"540":1.549851655960083,"541":-1.2625572681427002,"542":0.5750659704208374,"543":-0.1540960818529129,"544":-1.4770560264587402,"545":4.851662635803223,"546":1.181917667388916,"547":-0.30879899859428406,"548":1.426700234413147,"549":-0.8681023716926575,"550":-0.08125154674053192,"551":-1.1913293600082397,"552":0.5912281274795532,"553":-1.0165927410125732,"554":0.9315916299819946,"555":0.565044105052948,"556":1.5274670124053955,"557":-1.1331108808517456,"558":0.058055490255355835,"559":0.26794564723968506,"560":1.5279630422592163,"561":-1.2825504541397095,"562":-2.152968168258667,"563":5.006290912628174,"564":0.2643013000488281,"565":-0.27841776609420776,"566":2.251375198364258,"567":1.3860957622528076,"568":-0.9602540731430054,"569":0.991411566734314,"570":-0.9923437237739563,"571":2.4375648498535156,"572":0.4017142653465271,"573":0.8115761280059814,"574":2.182812452316284,"575":-1.9076067209243774,"576":3.0360169410705566,"577":2.6676580905914307,"578":1.4867137670516968,"579":0.4185052514076233,"580":-2.8888373374938965,"581":1.165327548980713,"582":-2.0604965686798096,"583":1.1088106632232666,"584":-0.619008481502533,"585":-4.216560363769531,"586":0.37543952465057373,"587":2.147900342941284,"588":0.4319089949131012,"589":-1.7616465091705322,"590":-2.0193021297454834,"591":-1.8309227228164673,"592":0.0039953263476490974,"593":1.2841808795928955,"594":-0.145901158452034,"595":0.26108846068382263,"596":0.9375835657119751,"597":-0.159059539437294,"598":0.2593754231929779,"599":-2.190978527069092,"600":-1.2687536478042603,"601":-0.695406436920166,"602":1.3525629043579102,"603":-0.699737012386322,"604":2.6881096363067627,"605":-0.7721783518791199,"606":-2.031373977661133,"607":1.8334351778030396,"608":-1.2314026355743408,"609":0.7025443911552429,"610":1.4150649309158325,"611":-1.3732846975326538,"612":-2.2703211307525635,"613":-3.3544914722442627,"614":0.6546844840049744,"615":1.396723985671997,"616":2.8246421813964844,"617":0.5205305814743042,"618":-0.3138042390346527,"619":2.1291754245758057,"620":-1.5827105045318604,"621":0.6850999593734741,"622":-1.3447972536087036,"623":0.5796022415161133,"624":-0.5707516670227051,"625":-1.5394686460494995,"626":-1.5978963375091553,"627":0.575579047203064,"628":-1.6358606815338135,"629":-2.8320577144622803,"630":2.458293914794922,"631":1.7896054983139038,"632":1.512050986289978,"633":2.8334667682647705,"634":-0.5368536710739136,"635":-1.2681289911270142,"636":-0.9728272557258606,"637":-1.0910065174102783,"638":2.1560230255126953,"639":-0.1074313223361969,"640":-3.603278398513794,"641":0.26381954550743103,"642":3.2359869480133057,"643":1.3024111986160278,"644":-1.2754783630371094,"645":-0.7841321229934692,"646":-0.29388338327407837,"647":-3.847719192504883,"648":-1.7458702325820923,"649":-2.2749650478363037,"650":0.0660596713423729,"651":1.6319422721862793,"652":0.9454794526100159,"653":-1.4810552597045898,"654":-0.19586805999279022,"655":-1.6136572360992432,"656":5.270702362060547,"657":-0.11420644074678421,"658":-0.2512528896331787,"659":-1.148726224899292,"660":-1.053131103515625,"661":2.673924446105957,"662":1.600616693496704,"663":0.9048110246658325,"664":-0.010631960816681385,"665":-3.920719861984253,"666":2.5945539474487305,"667":0.8296488523483276,"668":-0.07345305383205414,"669":0.30059462785720825,"670":1.1194912195205688,"671":4.145801067352295,"672":-2.066314220428467,"673":-1.5090110301971436,"674":1.8477355241775513,"675":1.265567660331726,"676":0.8977483510971069,"677":-2.2243239879608154,"678":-0.43144741654396057,"679":-1.5050009489059448,"680":-0.7199517488479614,"681":-0.7140098810195923,"682":0.30507785081863403,"683":-1.4694386720657349,"684":1.405490756034851,"685":2.2191619873046875,"686":0.7978713512420654,"687":1.00286066532135,"688":-1.9896968603134155,"689":1.1716582775115967,"690":0.2368108332157135,"691":2.543480634689331,"692":2.693129301071167,"693":-2.570814609527588,"694":1.3012460470199585,"695":3.6831717491149902,"696":-2.0703232288360596,"697":0.8752778768539429,"698":-0.2630448043346405,"699":1.0479629039764404,"700":4.163332939147949,"701":-0.7086078524589539,"702":-3.235821485519409,"703":-2.200315237045288,"704":0.3870077431201935,"705":-3.8422067165374756,"706":1.0675143003463745,"707":3.1208529472351074,"708":1.3777740001678467,"709":2.5116231441497803,"710":0.33995065093040466,"711":-0.40954354405403137,"712":2.47648286819458,"713":-2.3470675945281982,"714":0.60819011926651,"715":-0.8828735947608948,"716":-2.3411736488342285,"717":-0.27148452401161194,"718":0.24305495619773865,"719":-1.1474463939666748,"720":-0.3675783574581146,"721":0.026287727057933807,"722":-0.10881178081035614,"723":2.165598154067993,"724":1.8515563011169434,"725":2.4458205699920654,"726":-0.5056394934654236,"727":-1.52622652053833,"728":-1.2280479669570923,"729":-1.116741418838501,"730":-0.13088858127593994,"731":0.8052759766578674,"732":-3.0636098384857178,"733":0.7679572105407715,"734":-0.16723106801509857,"735":-0.5469604134559631,"736":1.0169646739959717,"737":-0.9833096861839294,"738":0.32910633087158203,"739":2.959386110305786,"740":-0.056236542761325836,"741":-0.2130635529756546,"742":-2.1946756839752197,"743":0.18616586923599243,"744":-2.4456026554107666,"745":-0.7734594941139221,"746":-0.9783000946044922,"747":0.0690285861492157,"748":-0.9458648562431335,"749":0.11950692534446716,"750":-1.131543517112732,"751":1.8400017023086548,"752":-1.5676528215408325,"753":-0.3590722680091858,"754":2.1526899337768555,"755":1.5101855993270874,"756":-1.3618111610412598,"757":-0.9875438213348389,"758":-1.813796877861023,"759":-1.9429017305374146}},"inputHidden":{"rows":20,"columns":20,"weights":{"0":-2.6513752937316895,"1":-1.5870375633239746,"2":-1.4654048681259155,"3":-2.0679523944854736,"4":2.883286476135254,"5":0.9187474846839905,"6":0.4787033200263977,"7":-3.036228895187378,"8":-5.1190667152404785,"9":2.143409490585327,"10":-2.989649772644043,"11":-3.420562982559204,"12":-1.1125205755233765,"13":0.01586710475385189,"14":1.2012723684310913,"15":-1.8063682317733765,"16":0.6565368175506592,"17":3.39644718170166,"18":2.402674674987793,"19":-0.921317994594574,"20":0.07178815454244614,"21":0.571768581867218,"22":0.312968909740448,"23":-1.2111321687698364,"24":-0.9427036046981812,"25":2.9750566482543945,"26":0.039299916476011276,"27":0.4770754277706146,"28":2.0640954971313477,"29":0.11971024423837662,"30":-0.004370400216430426,"31":-0.17041350901126862,"32":0.5763366222381592,"33":0.03299056366086006,"34":-1.543993353843689,"35":0.5859619379043579,"36":-0.18141835927963257,"37":-0.9663305878639221,"38":0.06097160652279854,"39":-0.8801136612892151,"40":-1.2340894937515259,"41":0.9107158184051514,"42":0.23408709466457367,"43":5.059850692749023,"44":0.9462083578109741,"45":-3.189486026763916,"46":2.2202675342559814,"47":-0.09579816460609436,"48":-1.042891263961792,"49":-2.9065001010894775,"50":0.3342491090297699,"51":-0.05385483056306839,"52":1.3064013719558716,"53":-0.17912133038043976,"54":3.1495180130004883,"55":-2.9673662185668945,"56":-0.3226829469203949,"57":-0.005981697700917721,"58":-1.8537627458572388,"59":-2.5887110233306885,"60":-2.3366646766662598,"61":2.356412649154663,"62":-5.19264030456543,"63":-4.833982944488525,"64":-0.8141126036643982,"65":1.5159114599227905,"66":4.182631492614746,"67":-4.152873992919922,"68":3.8726344108581543,"69":0.05372437834739685,"70":7.937480449676514,"71":1.4659016132354736,"72":-5.148287773132324,"73":4.549710273742676,"74":2.7447092533111572,"75":3.6450650691986084,"76":3.938746929168701,"77":1.97882878780365,"78":2.3060104846954346,"79":1.1834170818328857,"80":-0.4225844144821167,"81":-0.34286263585090637,"82":-0.7951947450637817,"83":0.48293837904930115,"84":-0.4319803714752197,"85":-0.9947340488433838,"86":2.8704488277435303,"87":-0.22818395495414734,"88":1.3813172578811646,"89":5.324126243591309,"90":-0.8510948419570923,"91":1.3821769952774048,"92":-0.3478899896144867,"93":0.7302523255348206,"94":-0.7977842688560486,"95":0.3264960050582886,"96":1.1231331825256348,"97":-1.3871656656265259,"98":-0.8819702863693237,"99":0.12182168662548065,"100":3.105431318283081,"101":-1.1331791877746582,"102":1.5985984802246094,"103":-0.9010317325592041,"104":-0.680709183216095,"105":2.1345553398132324,"106":-0.8004210591316223,"107":-0.1118088811635971,"108":3.088933229446411,"109":-0.8383700847625732,"110":2.4526662826538086,"111":-0.668891966342926,"112":2.3807106018066406,"113":-3.0790183544158936,"114":-1.3660341501235962,"115":-1.891095757484436,"116":0.7888088822364807,"117":3.337460517883301,"118":-3.035393714904785,"119":0.07335443049669266,"120":1.610654592514038,"121":1.7158526182174683,"122":1.9299198389053345,"123":-2.4059841632843018,"124":-2.4507155418395996,"125":1.2794408798217773,"126":0.6218661069869995,"127":-1.0427082777023315,"128":0.530217170715332,"129":0.6280971169471741,"130":0.42629823088645935,"131":-0.7951492071151733,"132":0.33278313279151917,"133":1.5540438890457153,"134":-1.1364396810531616,"135":1.1025817394256592,"136":1.7921812534332275,"137":0.658621072769165,"138":-0.04694415628910065,"139":1.8944752216339111,"140":-6.551303863525391,"141":-3.3339290618896484,"142":-0.3830115795135498,"143":-2.0156450271606445,"144":-1.3412725925445557,"145":-7.27801513671875,"146":1.2585357427597046,"147":0.8821772336959839,"148":0.9574693441390991,"149":2.9235005378723145,"150":2.2755424976348877,"151":4.971339225769043,"152":0.7066832184791565,"153":4.523742198944092,"154":-6.68172025680542,"155":6.338223457336426,"156":4.595139503479004,"157":-3.7476632595062256,"158":5.289313316345215,"159":1.917359471321106,"160":-3.156846046447754,"161":-2.239497184753418,"162":-0.4503536522388458,"163":0.11116228997707367,"164":1.7603669166564941,"165":-4.264828205108643,"166":-0.23992736637592316,"167":-1.3207206726074219,"168":-0.3751961886882782,"169":4.497636318206787,"170":-1.4382764101028442,"171":3.001289129257202,"172":-1.2649427652359009,"173":4.675784587860107,"174":1.8191397190093994,"175":0.9374811053276062,"176":0.7303450107574463,"177":-2.8465864658355713,"178":2.844297170639038,"179":-0.23345759510993958,"180":1.6637344360351562,"181":0.27596259117126465,"182":0.18315622210502625,"183":0.6616039872169495,"184":-0.48832687735557556,"185":-1.345160961151123,"186":-0.33364757895469666,"187":-0.31101152300834656,"188":0.23049846291542053,"189":-0.8037862777709961,"190":0.5195199251174927,"191":0.34528517723083496,"192":1.9711047410964966,"193":-1.207618236541748,"194":0.3132851719856262,"195":1.073184609413147,"196":-0.5333911180496216,"197":0.5290399193763733,"198":-0.49154189229011536,"199":1.1348681449890137,"200":-1.7708133459091187,"201":-1.0307388305664062,"202":-2.346677541732788,"203":1.2747151851654053,"204":2.6314191818237305,"205":0.4918419420719147,"206":3.07086443901062,"207":-1.5205761194229126,"208":-2.032825231552124,"209":3.418839454650879,"210":0.6375333070755005,"211":4.04197359085083,"212":-2.6866540908813477,"213":3.2490954399108887,"214":4.218552589416504,"215":-0.6688840389251709,"216":-2.5859713554382324,"217":-4.158907413482666,"218":-0.16413356363773346,"219":-0.05615200847387314,"220":-2.902463912963867,"221":-2.4434385299682617,"222":2.742081880569458,"223":-0.9907064437866211,"224":0.14671380817890167,"225":-0.5276349782943726,"226":0.8430408239364624,"227":0.9296984672546387,"228":1.0248899459838867,"229":-2.0151278972625732,"230":-0.34787172079086304,"231":-1.6248440742492676,"232":1.3281587362289429,"233":0.13565416634082794,"234":-1.6269055604934692,"235":-1.0249980688095093,"236":-0.04712995886802673,"237":-0.1553896814584732,"238":1.005309820175171,"239":-1.186970829963684,"240":-1.838362216949463,"241":-0.32740727066993713,"242":-1.2314497232437134,"243":0.21803170442581177,"244":-0.20918095111846924,"245":-2.0675899982452393,"246":-1.34907066822052,"247":1.1422687768936157,"248":-0.33735474944114685,"249":1.5465195178985596,"250":-0.7695111632347107,"251":2.775493621826172,"252":0.2028295248746872,"253":-0.34396955370903015,"254":-0.7522799372673035,"255":-1.5861729383468628,"256":4.010787010192871,"257":0.12813663482666016,"258":-0.5029621720314026,"259":-1.1657159328460693,"260":-3.2599546909332275,"261":4.651522636413574,"262":-0.7759876847267151,"263":-0.4942013919353485,"264":-1.2976202964782715,"265":-4.2992119789123535,"266":-0.8913559913635254,"267":-0.6139573454856873,"268":-1.8754000663757324,"269":-1.3959426879882812,"270":0.37834563851356506,"271":0.29533177614212036,"272":-2.1098275184631348,"273":2.831717014312744,"274":-0.2115563452243805,"275":-0.9649743437767029,"276":4.001097202301025,"277":-2.3129355907440186,"278":-0.4102685749530792,"279":-1.7123109102249146,"280":1.1201560497283936,"281":0.40078938007354736,"282":-2.000544309616089,"283":3.6898717880249023,"284":0.2450239211320877,"285":1.8485617637634277,"286":0.8994300961494446,"287":-3.1666524410247803,"288":-1.8966923952102661,"289":3.6417901515960693,"290":0.12033896893262863,"291":1.6212173700332642,"292":-0.5715687274932861,"293":0.20432186126708984,"294":1.1288071870803833,"295":-0.28712064027786255,"296":-1.7242356538772583,"297":-0.7026395201683044,"298":-3.222047805786133,"299":-1.0849124193191528,"300":-0.2882311940193176,"301":-2.1868538856506348,"302":-3.915313482284546,"303":-0.808795154094696,"304":2.628854990005493,"305":-2.943129062652588,"306":-0.6091335415840149,"307":-0.6849094033241272,"308":-3.6962509155273438,"309":2.0545032024383545,"310":-1.9834281206130981,"311":0.590977132320404,"312":-0.8602825999259949,"313":1.6095662117004395,"314":0.4156351685523987,"315":-0.9874838590621948,"316":-2.6088051795959473,"317":-0.4165037274360657,"318":0.48514798283576965,"319":0.7954003214836121,"320":1.495552659034729,"321":-1.965698480606079,"322":-1.8555703163146973,"323":-5.9582438468933105,"324":2.8718929290771484,"325":1.7322114706039429,"326":-6.428949356079102,"327":-4.943978786468506,"328":-5.7765092849731445,"329":4.208312511444092,"330":-7.64923095703125,"331":2.084083318710327,"332":-0.724777340888977,"333":-1.3994466066360474,"334":-0.5604789853096008,"335":-1.3735804557800293,"336":-3.078155755996704,"337":4.416630744934082,"338":-0.9900170564651489,"339":-9.394652366638184,"340":0.05746893212199211,"341":-1.7289443016052246,"342":-1.1949687004089355,"343":1.3453233242034912,"344":2.1514012813568115,"345":0.5646676421165466,"346":2.3881595134735107,"347":-1.9665511846542358,"348":-0.585549533367157,"349":0.2755388617515564,"350":-1.4412108659744263,"351":0.7326638698577881,"352":-2.082962989807129,"353":0.8641098141670227,"354":-0.9031552672386169,"355":-0.5376482009887695,"356":1.0262658596038818,"357":0.7890417575836182,"358":0.9621803164482117,"359":-0.18421973288059235,"360":-0.756396472454071,"361":-1.4735907316207886,"362":-1.931706190109253,"363":1.1052961349487305,"364":1.237159013748169,"365":-0.6986432671546936,"366":-0.09069810062646866,"367":-2.3063180446624756,"368":-0.6629302501678467,"369":-1.762789249420166,"370":-1.431284785270691,"371":-0.29322943091392517,"372":-0.15394888818264008,"373":-1.232093095779419,"374":-2.4401204586029053,"375":-0.5360588431358337,"376":0.33070603013038635,"377":0.40985777974128723,"378":-2.3177590370178223,"379":-0.2677448093891144,"380":0.9637590646743774,"381":-1.1714290380477905,"382":1.675147294998169,"383":-0.11815422773361206,"384":-1.121456265449524,"385":0.37685468792915344,"386":-1.302681803703308,"387":-0.5938007235527039,"388":1.2475190162658691,"389":-0.48885273933410645,"390":-0.33802327513694763,"391":-0.8977051973342896,"392":0.05924389138817787,"393":-0.3258332312107086,"394":-0.7701148390769958,"395":0.4323296844959259,"396":-0.39066314697265625,"397":0.44064363837242126,"398":-2.201228141784668,"399":0.668107807636261}},"inputBias":{"rows":20,"columns":1,"weights":{"0":-3.4443821907043457,"1":-1.3020857572555542,"2":-2.5980641841888428,"3":0.1730378419160843,"4":-0.6182447075843811,"5":-1.0271238088607788,"6":-1.061158537864685,"7":0.0813455730676651,"8":-0.8970885276794434,"9":-1.8289355039596558,"10":-3.489049196243286,"11":-1.8403432369232178,"12":-0.12419138103723526,"13":-0.7871156930923462,"14":-0.440647691488266,"15":-0.8810194134712219,"16":0.7217999696731567,"17":-0.6914714574813843,"18":-1.0102579593658447,"19":-1.6882249116897583}},"forgetMatrix":{"rows":20,"columns":38,"weights":{"0":2.9849495887756348,"1":2.7371392250061035,"2":0.4742145538330078,"3":1.1905608177185059,"4":-0.9210363626480103,"5":0.34690147638320923,"6":1.9777566194534302,"7":2.070760488510132,"8":0.8275550603866577,"9":0.029176894575357437,"10":-0.9022023677825928,"11":1.209579348564148,"12":-1.674559235572815,"13":-0.8187378644943237,"14":-1.3681644201278687,"15":-2.2197940349578857,"16":2.0658326148986816,"17":-1.9819419384002686,"18":0.9441359639167786,"19":-0.8748480081558228,"20":1.89946448802948,"21":-1.1824978590011597,"22":1.9236481189727783,"23":1.2217566967010498,"24":-0.26423439383506775,"25":1.794134497642517,"26":3.279228687286377,"27":-0.5279464721679688,"28":1.3741345405578613,"29":-0.7301223278045654,"30":3.0205881595611572,"31":-1.1091283559799194,"32":-0.6227827072143555,"33":-3.2585976123809814,"34":-0.2952592074871063,"35":-5.658358573913574,"36":-0.9026575088500977,"37":1.7886470556259155,"38":-0.11085548251867294,"39":-1.0209459066390991,"40":-2.8764591217041016,"41":-0.8071284890174866,"42":2.60919189453125,"43":0.7078532576560974,"44":-0.7230981588363647,"45":-2.3110387325286865,"46":2.6798477172851562,"47":-0.7772290706634521,"48":0.5831153988838196,"49":-3.541799545288086,"50":-1.4893851280212402,"51":0.5342872738838196,"52":-0.8562686443328857,"53":1.025884985923767,"54":-1.4676868915557861,"55":1.0243557691574097,"56":-0.33718228340148926,"57":-2.105029821395874,"58":2.798135995864868,"59":-2.2047665119171143,"60":0.5745911598205566,"61":1.3903611898422241,"62":-0.5295760035514832,"63":1.6588419675827026,"64":-0.3477478325366974,"65":3.8717212677001953,"66":-1.8332598209381104,"67":1.4793001413345337,"68":-1.1677837371826172,"69":-0.6023501753807068,"70":-0.2553532123565674,"71":-0.4845692217350006,"72":4.472322463989258,"73":4.959098815917969,"74":-0.8498576283454895,"75":1.7816327810287476,"76":1.1170436143875122,"77":-0.03408066928386688,"78":2.2175838947296143,"79":0.758861243724823,"80":-1.4559693336486816,"81":1.3764485120773315,"82":4.611893177032471,"83":2.506312131881714,"84":1.3369301557540894,"85":3.7017509937286377,"86":-0.6366326808929443,"87":1.3638819456100464,"88":-0.5997976660728455,"89":-4.786014556884766,"90":-2.606349468231201,"91":-0.3020535707473755,"92":1.3977307081222534,"93":1.0685455799102783,"94":-1.90291428565979,"95":-0.06397435069084167,"96":0.6478688716888428,"97":-1.078655481338501,"98":0.7630965709686279,"99":2.4332828521728516,"100":1.2328110933303833,"101":-0.007035042624920607,"102":1.3218724727630615,"103":-0.4806361794471741,"104":-0.14475296437740326,"105":0.6626706719398499,"106":1.3676657676696777,"107":-1.0622954368591309,"108":0.48408791422843933,"109":0.39923638105392456,"110":0.8370842337608337,"111":-1.9245898723602295,"112":-0.3251989185810089,"113":1.6217314004898071,"114":1.0075072050094604,"115":0.7735029458999634,"116":-2.402557373046875,"117":-0.5598084926605225,"118":-2.523164749145508,"119":1.8185752630233765,"120":-0.9522156715393066,"121":-2.9759140014648438,"122":1.4148154258728027,"123":2.3667755126953125,"124":1.4885940551757812,"125":-3.6688058376312256,"126":1.6108094453811646,"127":1.8501958847045898,"128":3.6071181297302246,"129":-0.6911562085151672,"130":-2.0237925052642822,"131":-4.400205612182617,"132":3.215999126434326,"133":3.1413345336914062,"134":-2.788522720336914,"135":-1.2639744281768799,"136":-1.186940312385559,"137":1.7593271732330322,"138":-0.45344728231430054,"139":-2.7169692516326904,"140":2.7729055881500244,"141":0.8963600993156433,"142":-3.3896830081939697,"143":2.6329171657562256,"144":-3.1649372577667236,"145":-0.9521955251693726,"146":0.9170691967010498,"147":0.9866029024124146,"148":2.1614270210266113,"149":2.7224435806274414,"150":2.359203577041626,"151":0.12920324504375458,"152":-0.13727760314941406,"153":2.4528262615203857,"154":0.8974488377571106,"155":1.3492053747177124,"156":-0.15953683853149414,"157":-1.2971564531326294,"158":2.0274341106414795,"159":0.3220560848712921,"160":-0.27823251485824585,"161":1.4739973545074463,"162":-3.264312982559204,"163":0.055929336696863174,"164":-1.4833927154541016,"165":-0.8394651412963867,"166":-2.7015998363494873,"167":-1.3788032531738281,"168":-0.21794183552265167,"169":0.07893981039524078,"170":-1.2141302824020386,"171":0.9500266909599304,"172":-1.8398778438568115,"173":-1.842207670211792,"174":0.3309624493122101,"175":0.7328564524650574,"176":0.658311665058136,"177":-0.9724345803260803,"178":3.082139253616333,"179":0.6670689582824707,"180":-0.753386914730072,"181":-0.14316754043102264,"182":2.1512715816497803,"183":1.0506306886672974,"184":-1.1605437994003296,"185":0.9402278661727905,"186":0.7999933362007141,"187":0.18220825493335724,"188":-0.22138972580432892,"189":2.2148284912109375,"190":1.3249547481536865,"191":-0.5026366710662842,"192":0.45381665229797363,"193":-0.3334488570690155,"194":1.3529019355773926,"195":3.4806482791900635,"196":-0.45244836807250977,"197":0.30431678891181946,"198":0.8092551827430725,"199":-1.6935020685195923,"200":-0.17136147618293762,"201":0.6181154251098633,"202":0.29792776703834534,"203":-0.6275696158409119,"204":2.5873870849609375,"205":1.070957899093628,"206":1.3902782201766968,"207":-2.7511394023895264,"208":0.5692381858825684,"209":1.7074962854385376,"210":2.818629026412964,"211":-0.26857510209083557,"212":1.0791388750076294,"213":0.11183302104473114,"214":0.3564617335796356,"215":1.308280110359192,"216":0.6030004620552063,"217":-1.3146612644195557,"218":-1.648916482925415,"219":0.015072773210704327,"220":1.2798930406570435,"221":-0.8461800813674927,"222":-1.239284873008728,"223":-0.5405248403549194,"224":0.5867959260940552,"225":-1.061767578125,"226":0.04171837493777275,"227":0.8048861622810364,"228":-0.352785587310791,"229":0.0937420055270195,"230":1.5626659393310547,"231":-0.5180841684341431,"232":-0.00985338632017374,"233":-0.5564845204353333,"234":-1.3020774126052856,"235":-1.1364169120788574,"236":1.4327884912490845,"237":-0.9949979186058044,"238":1.32801353931427,"239":-0.5515872240066528,"240":-1.9108508825302124,"241":-0.7274484038352966,"242":-1.8840806484222412,"243":0.0310088898986578,"244":-0.1539522260427475,"245":-0.15466706454753876,"246":-0.7891208529472351,"247":-1.7243291139602661,"248":0.9494141936302185,"249":-2.560713052749634,"250":1.9087340831756592,"251":1.8407986164093018,"252":0.685442328453064,"253":-0.6407113671302795,"254":0.6310529112815857,"255":-0.44966161251068115,"256":2.979320526123047,"257":-2.9808473587036133,"258":2.2105841636657715,"259":-1.1353377103805542,"260":0.06255374103784561,"261":-3.0281689167022705,"262":2.23717999458313,"263":-1.2805867195129395,"264":-2.0430381298065186,"265":0.7738012671470642,"266":0.6550406813621521,"267":1.4826668500900269,"268":-1.770090103149414,"269":0.5601474046707153,"270":0.6186487078666687,"271":0.9062397480010986,"272":2.421093463897705,"273":-0.9036054015159607,"274":-0.8420801758766174,"275":0.818821370601654,"276":-1.786386251449585,"277":-3.0435681343078613,"278":-1.4368796348571777,"279":0.15585209429264069,"280":-1.4607912302017212,"281":-3.6833300590515137,"282":1.0964049100875854,"283":-0.7976021766662598,"284":-1.7280685901641846,"285":-0.5813940763473511,"286":1.7741621732711792,"287":-1.4679745435714722,"288":-0.033679358661174774,"289":0.710899293422699,"290":0.14469610154628754,"291":-1.2946630716323853,"292":3.4495885372161865,"293":-0.2844450771808624,"294":0.22229218482971191,"295":-0.39407238364219666,"296":-1.0609036684036255,"297":0.27731800079345703,"298":-0.08278606086969376,"299":0.9513822793960571,"300":0.17893114686012268,"301":0.9937637448310852,"302":2.374587297439575,"303":0.7369438409805298,"304":0.17339922487735748,"305":1.684729814529419,"306":0.2698673903942108,"307":2.760251045227051,"308":-0.23251065611839294,"309":-1.2448521852493286,"310":-2.672272205352783,"311":2.441845417022705,"312":-1.5777456760406494,"313":5.441343784332275,"314":-1.3014578819274902,"315":-0.6137869358062744,"316":0.682684063911438,"317":-0.42183974385261536,"318":0.9590232372283936,"319":1.681479811668396,"320":1.3063039779663086,"321":2.378685474395752,"322":-0.09783702343702316,"323":-3.311938762664795,"324":-2.6746339797973633,"325":1.9538098573684692,"326":1.7605091333389282,"327":-2.5961220264434814,"328":-1.7334914207458496,"329":-2.113659381866455,"330":-2.975172281265259,"331":2.107057809829712,"332":-0.2465757578611374,"333":2.009884834289551,"334":1.8269648551940918,"335":2.664872169494629,"336":1.1113159656524658,"337":0.9019468426704407,"338":-2.8600707054138184,"339":0.5408954620361328,"340":-2.030892848968506,"341":-2.2675328254699707,"342":2.173030138015747,"343":3.145261764526367,"344":1.1772469282150269,"345":0.5015274286270142,"346":-1.277334213256836,"347":-2.8203060626983643,"348":-0.2601592540740967,"349":0.5659829378128052,"350":0.9515936970710754,"351":2.114531993865967,"352":-0.7611119151115417,"353":2.8517346382141113,"354":-3.601283311843872,"355":0.9573477506637573,"356":-1.1072444915771484,"357":0.007461178116500378,"358":-0.16996240615844727,"359":-0.06939918547868729,"360":-4.294613361358643,"361":-0.8245323300361633,"362":-4.1277642250061035,"363":-0.3896822929382324,"364":1.7557474374771118,"365":0.3422596752643585,"366":1.5445141792297363,"367":1.681208848953247,"368":-2.3891470432281494,"369":1.2753695249557495,"370":2.9023537635803223,"371":-2.2679989337921143,"372":-0.5997998118400574,"373":0.27568748593330383,"374":-1.4858932495117188,"375":2.5897507667541504,"376":0.1872936189174652,"377":0.6399629712104797,"378":-0.6787828803062439,"379":0.2124258428812027,"380":-2.5844645500183105,"381":-2.3605587482452393,"382":-1.4048540592193604,"383":-0.7545790076255798,"384":1.8929673433303833,"385":2.599555253982544,"386":0.19909296929836273,"387":-1.111894965171814,"388":2.417541742324829,"389":-2.9374537467956543,"390":2.37692928314209,"391":0.300994336605072,"392":-1.730647325515747,"393":0.6149285435676575,"394":-1.2243999242782593,"395":-0.9312726855278015,"396":1.398398995399475,"397":-2.2535958290100098,"398":-1.6569373607635498,"399":-3.5476417541503906,"400":1.172274112701416,"401":-1.5554217100143433,"402":1.1198843717575073,"403":1.485912799835205,"404":2.040410041809082,"405":2.1256110668182373,"406":1.2571687698364258,"407":-0.9661116600036621,"408":0.6547210812568665,"409":-1.2586020231246948,"410":-2.3677964210510254,"411":-0.25998908281326294,"412":-0.0020466309506446123,"413":-1.815570592880249,"414":1.7122502326965332,"415":1.7683850526809692,"416":-1.6948610544204712,"417":0.4696579873561859,"418":-0.5859237909317017,"419":-0.4570925533771515,"420":1.0192389488220215,"421":-0.40793555974960327,"422":-0.7746532559394836,"423":0.4553763270378113,"424":-0.7986086010932922,"425":-0.011162875220179558,"426":-0.8319639563560486,"427":2.1972923278808594,"428":3.7236275672912598,"429":0.3496071696281433,"430":-1.109762191772461,"431":0.8316744565963745,"432":-0.9808617830276489,"433":1.931393027305603,"434":2.0524892807006836,"435":-1.1082757711410522,"436":-0.9107723832130432,"437":-1.8837685585021973,"438":1.4548600912094116,"439":0.4324977695941925,"440":0.5554823875427246,"441":-0.44408726692199707,"442":1.5913941860198975,"443":2.1248385906219482,"444":-0.6812095642089844,"445":-0.489764928817749,"446":0.7264524102210999,"447":0.2772884666919708,"448":0.9864886999130249,"449":-0.434894323348999,"450":0.3269299864768982,"451":-0.16557176411151886,"452":1.385066270828247,"453":-1.3577125072479248,"454":1.4229990243911743,"455":0.5042473077774048,"456":-1.0187326669692993,"457":2.0922937393188477,"458":-0.2845653295516968,"459":1.0285121202468872,"460":-2.3668367862701416,"461":-3.127336025238037,"462":-0.666597843170166,"463":0.07676489651203156,"464":2.6760127544403076,"465":2.228137731552124,"466":-1.354182481765747,"467":1.4059679508209229,"468":-3.8233487606048584,"469":0.5141042470932007,"470":-2.061026096343994,"471":-0.9841469526290894,"472":0.9688486456871033,"473":1.516337513923645,"474":-0.14435982704162598,"475":-2.93282413482666,"476":-4.765587329864502,"477":-2.1699349880218506,"478":0.5878626704216003,"479":1.8756264448165894,"480":-0.2699902355670929,"481":0.9529191851615906,"482":-1.0119215250015259,"483":-0.8047260046005249,"484":0.12852971255779266,"485":-4.4041852951049805,"486":-1.1638453006744385,"487":-0.6610467433929443,"488":0.5955467820167542,"489":0.20090831816196442,"490":0.8428053259849548,"491":2.453155755996704,"492":0.5022646188735962,"493":0.9431492686271667,"494":-0.043644972145557404,"495":-0.5460793972015381,"496":0.26385027170181274,"497":-0.7180034518241882,"498":-2.084437370300293,"499":-1.976595163345337,"500":0.6270831823348999,"501":-1.6529046297073364,"502":0.6699516177177429,"503":-0.22171196341514587,"504":2.32690691947937,"505":1.2201584577560425,"506":-3.661510467529297,"507":1.593309998512268,"508":-1.910193920135498,"509":-0.07431021332740784,"510":2.4923758506774902,"511":-2.2988083362579346,"512":-1.113935112953186,"513":-0.4916485846042633,"514":0.5923684239387512,"515":0.597377359867096,"516":1.0013905763626099,"517":-0.5555213689804077,"518":-1.9967930316925049,"519":-0.9065571427345276,"520":1.047728419303894,"521":2.7752835750579834,"522":0.9505630731582642,"523":-1.86062753200531,"524":-0.6123487949371338,"525":3.1659488677978516,"526":-0.2963660657405853,"527":-0.9382357597351074,"528":2.2262015342712402,"529":-1.0720083713531494,"530":-0.07431188225746155,"531":0.3417873680591583,"532":-0.3269862234592438,"533":-0.3965437412261963,"534":0.40015533566474915,"535":0.7930583357810974,"536":0.9016050100326538,"537":2.6667959690093994,"538":-2.4737038612365723,"539":0.41029778122901917,"540":2.6163198947906494,"541":-0.5148245096206665,"542":-1.0496606826782227,"543":-1.508633017539978,"544":-1.9531303644180298,"545":0.6217318773269653,"546":1.0663491487503052,"547":2.541111946105957,"548":1.0338088274002075,"549":-0.3937009871006012,"550":-0.6174217462539673,"551":-1.9173674583435059,"552":2.3069820404052734,"553":-3.4347290992736816,"554":1.4787743091583252,"555":2.4623677730560303,"556":1.5879651308059692,"557":0.3542965352535248,"558":-0.43556463718414307,"559":-1.6041088104248047,"560":1.416818380355835,"561":-2.832554340362549,"562":1.1944762468338013,"563":-0.886795163154602,"564":-3.127776622772217,"565":-1.328165054321289,"566":3.1738712787628174,"567":0.09553035348653793,"568":-0.4966810643672943,"569":1.0854830741882324,"570":-0.5260395407676697,"571":-1.3336091041564941,"572":-0.8325054049491882,"573":-2.8121700286865234,"574":0.9615803956985474,"575":0.2676960229873657,"576":2.490006923675537,"577":-0.9162070155143738,"578":1.3292466402053833,"579":-0.9135525822639465,"580":1.7210800647735596,"581":-0.22410808503627777,"582":-1.3426989316940308,"583":0.49452561140060425,"584":-2.540959596633911,"585":2.460721254348755,"586":1.2359014749526978,"587":-1.967031717300415,"588":-3.593381404876709,"589":0.33430320024490356,"590":1.8737481832504272,"591":-1.7830291986465454,"592":2.3074862957000732,"593":0.36312127113342285,"594":1.9563053846359253,"595":1.012915849685669,"596":3.0704596042633057,"597":-1.2454267740249634,"598":-0.008071607910096645,"599":-2.46855092048645,"600":0.2636841833591461,"601":-1.1398138999938965,"602":-1.4096953868865967,"603":-0.27886417508125305,"604":1.6174932718276978,"605":2.5604441165924072,"606":3.2895967960357666,"607":1.5370479822158813,"608":0.9596090316772461,"609":0.37938573956489563,"610":0.9159801602363586,"611":0.0422576479613781,"612":-1.0452756881713867,"613":-1.0173500776290894,"614":3.9014928340911865,"615":3.8392093181610107,"616":1.3339143991470337,"617":1.130836844444275,"618":-0.4034189283847809,"619":0.05480191856622696,"620":-1.8575013875961304,"621":-3.4201433658599854,"622":-0.17046895623207092,"623":-0.04871029779314995,"624":0.6121175289154053,"625":0.7814493179321289,"626":-1.0054305791854858,"627":-0.5475417971611023,"628":-0.39290568232536316,"629":-1.8315092325210571,"630":0.46265101432800293,"631":1.5750789642333984,"632":1.0388884544372559,"633":1.157353162765503,"634":1.3380018472671509,"635":-1.6508615016937256,"636":-0.468746155500412,"637":-2.2263855934143066,"638":0.7245223522186279,"639":-1.1782184839248657,"640":-1.0928889513015747,"641":0.8623676896095276,"642":1.2042127847671509,"643":-1.6220881938934326,"644":-1.5214308500289917,"645":3.0775160789489746,"646":-0.893959105014801,"647":-1.4544905424118042,"648":-0.3175150156021118,"649":-2.3081746101379395,"650":2.3403656482696533,"651":1.3513504266738892,"652":0.11834423989057541,"653":-0.32561400532722473,"654":0.7101251482963562,"655":-2.682476043701172,"656":1.8245025873184204,"657":-0.29403263330459595,"658":-2.413231134414673,"659":0.6691033840179443,"660":-1.0809636116027832,"661":1.6801255941390991,"662":0.7483534812927246,"663":-0.38473474979400635,"664":-0.34177085757255554,"665":-0.35741323232650757,"666":0.6452971696853638,"667":-1.326848030090332,"668":0.9098694324493408,"669":2.0652177333831787,"670":-0.36992305517196655,"671":0.7163945436477661,"672":0.7923031449317932,"673":-2.8980624675750732,"674":-1.657812476158142,"675":-0.9604431390762329,"676":0.8828747272491455,"677":-2.1502902507781982,"678":-0.6822618246078491,"679":-2.8177478313446045,"680":-0.5076687335968018,"681":-1.4102873802185059,"682":1.2583109140396118,"683":-1.0949586629867554,"684":-1.3522839546203613,"685":-0.6167183518409729,"686":1.9469923973083496,"687":-0.8375230431556702,"688":1.368709921836853,"689":0.9606605768203735,"690":-2.174384117126465,"691":-0.22593919932842255,"692":2.2093489170074463,"693":-0.4134454131126404,"694":3.752617359161377,"695":1.2211618423461914,"696":0.27342894673347473,"697":-1.7884000539779663,"698":-1.5978119373321533,"699":4.239264965057373,"700":1.8965147733688354,"701":-0.7864304184913635,"702":-2.247319459915161,"703":1.2873103618621826,"704":0.3877202272415161,"705":-3.0412542819976807,"706":0.8427054286003113,"707":2.955975294113159,"708":1.6194652318954468,"709":0.6677317023277283,"710":-1.802134394645691,"711":0.4287605583667755,"712":0.3068172335624695,"713":-0.29571619629859924,"714":0.8585057258605957,"715":1.383492350578308,"716":-0.9592846632003784,"717":-1.6739214658737183,"718":1.4411004781723022,"719":-0.6560978293418884,"720":-0.6516539454460144,"721":1.1476633548736572,"722":2.5003955364227295,"723":1.1785027980804443,"724":2.1250131130218506,"725":0.6703479290008545,"726":1.0836315155029297,"727":1.967721700668335,"728":-0.3929515480995178,"729":0.7293945550918579,"730":1.1551543474197388,"731":-0.6224985718727112,"732":-2.477598190307617,"733":1.5789003372192383,"734":-2.6293482780456543,"735":-0.51912921667099,"736":0.6172018647193909,"737":1.3278117179870605,"738":0.6847655177116394,"739":-0.8353415131568909,"740":-2.9113450050354004,"741":-0.6543517112731934,"742":1.0175869464874268,"743":-0.6811518669128418,"744":2.422285795211792,"745":-0.04951384291052818,"746":1.8277028799057007,"747":2.4337573051452637,"748":0.17223547399044037,"749":-3.8056106567382812,"750":1.8673286437988281,"751":-0.8583899736404419,"752":2.101313591003418,"753":-1.724535584449768,"754":-0.43545737862586975,"755":-1.9595860242843628,"756":1.595768690109253,"757":0.11592213809490204,"758":-1.4551682472229004,"759":0.424856960773468}},"forgetHidden":{"rows":20,"columns":20,"weights":{"0":-5.257156848907471,"1":-0.969329833984375,"2":1.8691116571426392,"3":-1.0912474393844604,"4":-5.4503374099731445,"5":-1.1811563968658447,"6":5.647797107696533,"7":0.8667206764221191,"8":3.0526156425476074,"9":1.1198439598083496,"10":6.044714450836182,"11":2.7079977989196777,"12":0.22613215446472168,"13":4.197250843048096,"14":-4.143443584442139,"15":3.3672995567321777,"16":4.819905757904053,"17":-2.0365726947784424,"18":4.125595569610596,"19":-2.401268482208252,"20":0.3934314250946045,"21":-0.5092196464538574,"22":1.4756184816360474,"23":-2.2904911041259766,"24":-1.2138818502426147,"25":2.2675487995147705,"26":-0.4000970721244812,"27":-1.671680212020874,"28":2.2663180828094482,"29":0.09782634675502777,"30":1.8038122653961182,"31":-1.3929511308670044,"32":-1.2663578987121582,"33":1.4227759838104248,"34":-3.8305463790893555,"35":2.1431117057800293,"36":1.6431230306625366,"37":2.826756715774536,"38":1.7212069034576416,"39":-0.17943955957889557,"40":1.5122743844985962,"41":-2.6623919010162354,"42":-1.8676754236221313,"43":0.40942367911338806,"44":0.45632874965667725,"45":3.290759325027466,"46":-1.6710423231124878,"47":0.29639095067977905,"48":-4.088521480560303,"49":4.12826681137085,"50":-2.363616704940796,"51":-0.6135567426681519,"52":1.0973738431930542,"53":-0.2623504400253296,"54":2.037644624710083,"55":0.8806889057159424,"56":-0.7470553517341614,"57":-1.3678098917007446,"58":-1.5275338888168335,"59":0.8215956687927246,"60":2.963124990463257,"61":2.3058619499206543,"62":4.338971138000488,"63":-0.9504441618919373,"64":-4.7176618576049805,"65":2.611593246459961,"66":2.32842755317688,"67":0.03254953771829605,"68":4.81913948059082,"69":-2.8504366874694824,"70":3.447336196899414,"71":-0.9545574188232422,"72":-3.321540117263794,"73":0.6742587089538574,"74":-4.099302768707275,"75":4.986722469329834,"76":3.0474905967712402,"77":2.491318464279175,"78":1.9177072048187256,"79":3.7946996688842773,"80":-1.074446439743042,"81":5.001445770263672,"82":-0.6356229186058044,"83":-3.2291066646575928,"84":-1.1204813718795776,"85":-0.8529424667358398,"86":0.7346961498260498,"87":0.4333292543888092,"88":4.151377201080322,"89":-3.0283122062683105,"90":2.531856060028076,"91":1.7784953117370605,"92":2.170105457305908,"93":6.0422139167785645,"94":-6.31023645401001,"95":0.6028215289115906,"96":-1.4500823020935059,"97":-3.5522191524505615,"98":-1.9021294116973877,"99":-0.9687834978103638,"100":-3.5337843894958496,"101":1.1043744087219238,"102":-3.2099368572235107,"103":1.1983224153518677,"104":0.7533725500106812,"105":-3.5686779022216797,"106":3.2240021228790283,"107":-1.303082823753357,"108":1.009617567062378,"109":0.07407975196838379,"110":2.0434510707855225,"111":-0.7859277725219727,"112":-0.398052453994751,"113":0.42927855253219604,"114":-1.802412986755371,"115":1.4790300130844116,"116":2.0727648735046387,"117":-3.536522626876831,"118":-0.0861290842294693,"119":-1.5068650245666504,"120":-1.3262592554092407,"121":2.526150703430176,"122":2.2641820907592773,"123":-3.49053955078125,"124":-1.7747387886047363,"125":2.275933265686035,"126":1.4869695901870728,"127":-3.2652595043182373,"128":2.6365458965301514,"129":1.5274516344070435,"130":2.2294042110443115,"131":-2.963684320449829,"132":-3.7071588039398193,"133":2.1466355323791504,"134":-6.024410247802734,"135":3.788450241088867,"136":1.5191997289657593,"137":1.37489914894104,"138":5.19913387298584,"139":3.5643436908721924,"140":0.014607379212975502,"141":2.5635836124420166,"142":-1.0829392671585083,"143":1.3061867952346802,"144":0.4884084463119507,"145":1.23530912399292,"146":-0.9367316365242004,"147":-3.9904427528381348,"148":0.2678772807121277,"149":-3.914165496826172,"150":-0.37241607904434204,"151":-0.8363721370697021,"152":-0.18259376287460327,"153":-0.7171095013618469,"154":0.8952008485794067,"155":0.7749290466308594,"156":-0.6558395624160767,"157":2.415217399597168,"158":1.5541322231292725,"159":-1.0462909936904907,"160":3.9983341693878174,"161":0.1947220116853714,"162":-0.6822256445884705,"163":5.4162068367004395,"164":1.6353970766067505,"165":-0.8337728977203369,"166":-0.6273912191390991,"167":1.4864773750305176,"168":-3.4759483337402344,"169":-0.17521558701992035,"170":-5.347372055053711,"171":-2.327122688293457,"172":1.1721655130386353,"173":-1.2673187255859375,"174":-1.0190367698669434,"175":-2.089576482772827,"176":-3.5797324180603027,"177":-4.0599894523620605,"178":-3.2479052543640137,"179":-0.032813239842653275,"180":-2.4683034420013428,"181":0.9689404368400574,"182":-1.6725614070892334,"183":1.39773428440094,"184":0.17857626080513,"185":-0.7185810208320618,"186":2.176342248916626,"187":-0.8871862888336182,"188":0.3125947117805481,"189":0.48195430636405945,"190":-0.3427097201347351,"191":2.3199613094329834,"192":-1.9360148906707764,"193":0.9206991791725159,"194":-2.3810036182403564,"195":1.2852096557617188,"196":1.7010447978973389,"197":-0.5981077551841736,"198":1.5737340450286865,"199":-1.0330568552017212,"200":0.183134064078331,"201":-0.023310240358114243,"202":1.2805840969085693,"203":-1.0853838920593262,"204":-3.764216899871826,"205":-1.2039614915847778,"206":1.110761046409607,"207":2.185896635055542,"208":5.520318984985352,"209":-3.7443838119506836,"210":2.1943137645721436,"211":-0.4720245897769928,"212":-1.3547402620315552,"213":2.2585318088531494,"214":-2.4615607261657715,"215":6.7538299560546875,"216":2.23909330368042,"217":-4.5721869468688965,"218":2.24290132522583,"219":-1.0678766965866089,"220":0.433893620967865,"221":0.0181418526917696,"222":0.5266746878623962,"223":0.04118620231747627,"224":-0.7618592381477356,"225":0.26243340969085693,"226":-1.350972294807434,"227":0.5497435331344604,"228":0.46649613976478577,"229":-1.2605253458023071,"230":0.7356967926025391,"231":-0.7558573484420776,"232":1.0150671005249023,"233":-1.7439388036727905,"234":0.7335543632507324,"235":0.5052439570426941,"236":-0.4989754259586334,"237":0.5425741076469421,"238":-1.7427632808685303,"239":-0.035448651760816574,"240":-5.8181962966918945,"241":-1.2180780172348022,"242":-0.9340968132019043,"243":6.572788715362549,"244":1.4957704544067383,"245":-2.4433674812316895,"246":-6.718739986419678,"247":0.5232770442962646,"248":-0.23803327977657318,"249":-3.6426284313201904,"250":1.027806043624878,"251":-2.350614070892334,"252":1.6353070735931396,"253":-2.035475015640259,"254":-3.126875877380371,"255":0.2818155288696289,"256":-5.023157596588135,"257":-2.6319096088409424,"258":-2.4680333137512207,"259":-3.2126193046569824,"260":-0.058055032044649124,"261":0.4505716860294342,"262":1.5115898847579956,"263":-0.2960043251514435,"264":0.6288349628448486,"265":-0.8684998154640198,"266":0.468334436416626,"267":-2.0011770725250244,"268":-0.024602755904197693,"269":1.2563862800598145,"270":0.3241214156150818,"271":-0.8002839088439941,"272":-1.3678138256072998,"273":0.798514723777771,"274":-1.292827844619751,"275":0.35411667823791504,"276":0.5270516276359558,"277":0.024319861084222794,"278":2.7622859477996826,"279":2.331683397293091,"280":-0.8251311182975769,"281":2.7647814750671387,"282":-4.049258708953857,"283":-3.9643728733062744,"284":-1.5333037376403809,"285":-1.2596155405044556,"286":5.432221412658691,"287":2.332174062728882,"288":4.96678352355957,"289":-4.936852931976318,"290":1.7978088855743408,"291":2.377945899963379,"292":0.46357548236846924,"293":6.146965503692627,"294":1.673069715499878,"295":1.662755012512207,"296":-8.676432609558105,"297":0.8824529647827148,"298":-2.356344699859619,"299":1.6781524419784546,"300":-3.293797016143799,"301":-1.6108332872390747,"302":-1.6490004062652588,"303":2.0706787109375,"304":0.023238014429807663,"305":0.3133503794670105,"306":-1.0246341228485107,"307":0.8095023036003113,"308":-0.03764178976416588,"309":-1.6419994831085205,"310":-1.0158002376556396,"311":-0.5827587246894836,"312":0.8439792394638062,"313":-2.3473546504974365,"314":1.7849880456924438,"315":-1.5855350494384766,"316":-2.1664397716522217,"317":-2.6105782985687256,"318":-1.2665023803710938,"319":-1.387756109237671,"320":1.0183337926864624,"321":1.2396827936172485,"322":-0.21493172645568848,"323":0.8650423288345337,"324":-0.31692931056022644,"325":0.058298468589782715,"326":-0.9794167876243591,"327":-0.03835200518369675,"328":0.16423222422599792,"329":1.5075775384902954,"330":-0.5440173149108887,"331":0.3300907015800476,"332":0.6189884543418884,"333":-0.8236145377159119,"334":0.3328704237937927,"335":-0.12911328673362732,"336":-1.0335429906845093,"337":-0.7357962727546692,"338":-1.0841450691223145,"339":-0.26740139722824097,"340":0.18070434033870697,"341":-0.7984698414802551,"342":-1.8764829635620117,"343":-2.3435356616973877,"344":0.14564499258995056,"345":-3.9101855754852295,"346":1.340502142906189,"347":3.0997796058654785,"348":1.238167405128479,"349":1.2943464517593384,"350":-0.32499516010284424,"351":-0.33772504329681396,"352":4.107067108154297,"353":-0.6101758480072021,"354":2.274179458618164,"355":-4.379817962646484,"356":-0.4663046598434448,"357":-3.0019307136535645,"358":-1.4041152000427246,"359":0.7168940901756287,"360":-4.250396251678467,"361":-1.036634087562561,"362":2.540797233581543,"363":-3.275848627090454,"364":-0.3860379755496979,"365":-4.504029750823975,"366":6.305532455444336,"367":0.6364964842796326,"368":3.254617214202881,"369":1.028260350227356,"370":3.35807204246521,"371":-2.177180051803589,"372":-3.0945961475372314,"373":3.21802020072937,"374":-3.7226414680480957,"375":3.085447311401367,"376":2.457369089126587,"377":0.8658275008201599,"378":2.727557897567749,"379":-0.21986956894397736,"380":-4.3631415367126465,"381":0.013238627463579178,"382":-0.1476193517446518,"383":1.441659688949585,"384":1.0182480812072754,"385":-0.7516607642173767,"386":0.249166339635849,"387":-1.4158296585083008,"388":-3.8484058380126953,"389":-1.0520659685134888,"390":-2.338899850845337,"391":2.446878671646118,"392":-0.5378884077072144,"393":1.1563202142715454,"394":-0.45070403814315796,"395":-2.847551107406616,"396":-0.8148902058601379,"397":-0.8625457882881165,"398":-0.48289889097213745,"399":-2.7349953651428223}},"forgetBias":{"rows":20,"columns":1,"weights":{"0":0,"1":0,"2":0,"3":0,"4":0,"5":0,"6":0,"7":0,"8":0,"9":0,"10":0,"11":0,"12":0,"13":0,"14":0,"15":0,"16":0,"17":0,"18":0,"19":0}},"outputMatrix":{"rows":20,"columns":38,"weights":{"0":-0.3798119127750397,"1":1.5554994344711304,"2":3.633134365081787,"3":2.3805389404296875,"4":-1.0554383993148804,"5":-0.3018132746219635,"6":4.5830769538879395,"7":3.0151121616363525,"8":1.4389498233795166,"9":1.4758940935134888,"10":-0.4156759977340698,"11":0.7513786554336548,"12":-1.3591688871383667,